5 7 16 16 8 1 
0.0 0.0 -0.002473336480657673 0.0021195339589463037 0.13068239094223352 0.0 0.0 -0.0026234807550585253 5.196313164508901E-4 -0.12679414209404374 0.005184026972917268 0.0 0.0 -0.0997920723378996 -0.005385690895007671 -0.004210999116205743 ;0.0 0.0 0.0 0.0 0.12295023046624036 0.0 0.0 0.0 0.0 -0.07259840994321215 -0.0023037771033831943 0.0 0.0 -0.07178874248012979 0.002474408645023353 0.0 ;0.004281913500656919 0.0 0.0 0.002260455696738568 0.1265330980006506 0.0 -3.580795976671411E-4 -0.002798180850505187 5.541355840469902E-4 -0.09859513998360657 0.005490316619177392 0.0 0.0 -0.08044110266637416 -0.005701612164021563 -0.004492103241995158 ;0.0 0.0 0.0 0.0 0.04207049662109954 0.0 0.0 0.0 0.0 -0.08505397593758328 -4.287758458370037E-5 0.0 0.0 -0.06787101206351712 4.527094350209071E-5 0.0 ;0.0 0.0 0.0 0.0 0.0012011842004848348 0.0 -4.093048509847196E-4 0.0 0.0 -0.03366692614529607 0.00824729349311103 0.0 0.0 -0.034787998496793565 -0.008718156065234376 0.0 ;0.0 0.0 0.0 0.0 0.5663517363921846 0.0 0.0 0.0 0.0 0.3538861820791368 0.014374689549336682 0.0 0.0 0.39516552299480295 -0.01524073090563519 0.0 ;0.0 0.0 0.0 0.0 2.0299096680348345 0.0 -0.001083265861323699 0.0 0.0 1.312277456947599 0.02344182649546073 0.0 0.0 1.4454127266698322 -0.024921073362753936 0.0 ;-0.5063537897887431 0.7359087433578673 0.6049481906395002 -0.6342887447412402 -0.23368919655521192 -0.7085916083635615 0.9600157832404521 0.5931086411846753 -0.8855764482628328 -0.05298109060832856 -0.45565048332602265 0.6328824778451807 0.5770378971381183 -0.08393050373580535 0.44696196875151806 0.49534526200203177 
-0.015805903069197307 0.0 -6.023138975417625E-5 0.005053423295852465 0.0 0.0 0.05161829054677302 0.0 0.43805309212512106 7.974104498208054E-4 0.0 -0.0015822580304967748 0.0 0.0 -6.162911080639579E-5 5.8138524456699895E-5 ;0.02299237497094505 0.0 8.761251551711138E-5 -0.007350745474245902 0.0 0.0 -0.07433855249133707 0.0 -0.6374997825024024 0.0 0.0 0.0023015554757859482 0.003027617716985566 0.0 8.964563550490952E-5 -8.456823541439996E-5 ;0.018895480388816558 0.0 0.0 -0.006040990910128673 0.0 0.0 -0.06089926956937308 -6.350187760519524E-5 -0.5239094605412278 -9.532430421401546E-4 0.0 0.0018914696758782165 0.0 0.0 0.0 0.0 ;-0.019805909597806926 0.0 -7.547326344756601E-5 0.006332210421609291 0.0 0.004552442545560199 0.06405946160824749 6.656335353793144E-5 0.5490000347061715 0.0 0.0 -0.00198265653182803 0.0 0.0 0.0 7.285078736562716E-5 ;0.025973536719867386 0.0 0.0 0.0 0.0 0.0 3.1815706718202676 0.0 3.89337834601096 0.0 0.0 0.0 0.0 0.0 0.0 0.0 ;-0.02213889168705951 2.9717263706594193E-5 -8.436031483982492E-5 0.0070778837801275425 0.0 0.0 0.07154708772414553 0.0 0.6138356152063069 0.0 0.0 -0.002216121103390816 0.0 0.0 0.0 8.142903925197596E-5 ;0.029973808603905642 -4.02360435802778E-5 1.1422065531204016E-4 -0.009583189564348879 0.0 -0.006889665049337399 -0.09838434824262085 0.0 -0.8334222260551326 0.0 0.0 0.0030005419860858413 0.0 0.0 0.0 -1.1025182078515173E-4 ;0.018516597793461938 0.0 7.056097498250848E-5 0.0 0.0 -0.0042561358183469174 -0.05991326658826902 -6.223098014397502E-5 -0.5132116018854657 -9.341647757832926E-4 0.0 0.0 0.0 0.0 0.0 -6.810918671004945E-5 ;-0.027665698971560872 0.0 0.0 0.008844870603178874 0.0 0.006358860001326137 0.08946870953939413 0.0 0.7670384637696519 0.0 0.0 -0.002769375923993449 0.0 0.0 -1.0786729399852072E-4 1.0175784462817897E-4 ;0.01817031959393572 0.0 6.232991982428027E-5 -0.005220774626706684 0.0 0.0 1.9578935473457202 -5.497247478810043E-5 2.3963706802420863 0.0 0.0 0.0016395053979068657 0.0 0.0 0.0 -6.016231326801228E-5 ;-0.013516389032039085 0.0 0.0 0.0 0.0 0.0 0.0832428581887681 0.0 0.4550761556705358 0.0 0.0 0.0 0.0 0.0 0.0 0.0 ;0.019773472423714866 0.0 7.534687746433919E-5 0.0 0.0 -0.004544833578560341 -0.06388451378977004 0.0 -0.5482506433269703 0.0 0.0 0.0 0.0 0.0 7.709536330208242E-5 -7.272879261068036E-5 ;0.018029017502567978 0.0 0.0 -0.005763920959520129 0.0 0.0 -0.05824744211982714 -6.058911350646568E-5 -0.49983705942988077 -9.095191173939003E-4 0.0 0.001804712061156334 0.0023740369042241916 0.0 7.02935607657394E-5 -6.631223457621403E-5 ;0.01957531170390403 0.0 6.690512824287637E-5 0.0 0.0 0.0 2.1668589993285794 -5.900763029441728E-5 2.66390388596605 -8.858786519978482E-4 0.0 0.0017599797456195846 0.0 0.0 0.0 0.0 ;0.013202914869065788 0.0 5.0518044870490475E-5 -0.004237932746412285 0.0 0.0 -0.08468744502746897 -4.455419675185656E-5 -0.4512601344600904 -6.688034729316259E-4 0.0 0.0 0.0017457727459093924 0.0 0.0 0.0 ;0.01545249712608449 0.0 0.0 -0.00494050510367185 0.0 -0.003551910147513882 -0.05006259617498491 -5.193426225321744E-5 -0.42822822151673906 0.0 0.0 0.0015469112857432455 0.0 0.0 0.0 0.0 ;-0.2522614445259046 0.7245421915502925 -0.6528413338739834 0.33570088421509925 0.8852660341685628 0.35979360398011284 -0.19271091506552418 0.6615113807497344 -0.04774080010143211 0.47112467939538605 -0.9897395250245564 -0.4217597650069138 -0.4010668473403909 0.8487516021320127 -0.651237973917766 0.655280851626322 
0.0 0.0 0.13266938833942193 0.24963615765911687 0.0 0.0 0.0 0.0 ;0.0010432923480938874 -1.765367256028296E-4 -0.2975216015847239 -0.6345028077829313 0.0 0.0 0.0 0.0 ;-9.398992533645796E-4 1.5904014217177557E-4 0.2681150238920274 0.5717617291772292 0.0 0.0 0.0 0.0 ;4.760205268780546E-4 -8.049900115456207E-5 -0.13849335523620002 -0.29431398942214526 0.0 0.0 0.0 0.0 ;0.0012747274108711266 -2.1569812215984965E-4 -0.3635215582083596 -0.7752565499926772 0.0 0.0 5.64182857614211E-5 0.0 ;5.16735421232573E-4 0.0 -0.14676891622822255 -0.3138503381854652 0.0 0.0 0.0 0.0 ;0.005983760357446059 -0.0010779778223058741 3.236170918581124 3.449949062706974 2.5409386639962023E-4 0.0 0.0 -6.918438717245743E-5 ;9.524062886187954E-4 -1.6115662359906646E-4 -0.27167700167364034 -0.5793532631632834 0.0 0.0 0.0 0.0 ;0.007405987347928297 -0.0013369900741088214 4.479764375426969 4.558192969480951 3.1527162720207863E-4 0.0 0.0 -8.585081724387186E-5 ;6.772751949278295E-4 -1.1459321742316232E-4 -0.19380166237565566 -0.412878765885194 0.0 0.0 0.0 0.0 ;-0.0014251626668998695 2.4115344849493764E-4 0.4064116222621532 0.8667474182295087 -5.6032845312923996E-5 0.0 -6.307641454317692E-5 0.0 ;0.0 0.0 0.17443643832765898 0.3705860092528593 0.0 0.0 0.0 0.0 ;-5.770237292484178E-4 9.763935117452229E-5 0.16434099853982626 0.3507647695317803 0.0 0.0 0.0 0.0 ;0.0012221489252941808 0.0 -0.34852744037406913 -0.743279662240353 4.80509932450929E-5 0.0 0.0 0.0 ;0.0 1.5867359807618538E-4 0.26741519588384943 0.5702954161066724 0.0 0.0 0.0 0.0 ;9.434797907935913E-4 0.0 -0.2690774804658658 -0.5738574890467806 0.0 0.0 0.0 0.0 ;-0.5095491103355703 0.6287664782581832 -0.29252508203628946 0.222381245095 -0.728099265101235 -0.8867610172526581 -0.7194825039947832 0.8165434678884762 
2.9195403648060134 ;-3.5959859944171453 ;4.571814473291234 ;5.020857630817137 ;4.162464414721803 ;5.068715502715966 ;4.1124660572035445 ;-4.667552040565555 ;0.38363016978751197 
