7 7 8 8 8 8 8 1 
0.0 0.0 0.05328660016054824 0.0 0.0 0.0 -0.03792937526011718 0.014877903602403608 ;0.0482675760204101 0.0 -0.18164861562244233 0.044103703627511766 0.0 0.0 0.13521328484790132 -0.24932213790506816 ;3.7166029668537966E-4 -9.616750460027013E-4 -0.017376647050895273 0.0 0.0 -0.0012393184125408813 0.024601215942619756 -0.05859496549913385 ;0.0 0.0 0.5324039836868616 0.0 0.0 0.0 -0.23431399709849535 -0.12012942472029693 ;0.0 0.0 0.12273659147888741 0.0 0.0 0.0 -0.14559699450976138 0.3160037985064399 ;0.018589862248910318 0.0 0.413932014582953 0.0 0.0 0.0 0.6879397048620315 0.9174382812293127 ;0.0 0.015702821722399826 1.3892932729653462 -0.013549098568453563 -0.018003021925376294 0.0 2.9643422197759923 0.7766741448958677 ;-0.8337196318138405 0.8235601402521646 -0.3155980735274426 -0.8513989598078668 -0.7935823691354946 0.6864006003770651 -0.2602158376751229 -0.4305871942766235 
1.0994865246668001E-4 0.022528377825262187 0.026860703040646677 -2.3570557580675295 0.0 -0.021158182869225377 1.9375426864546565 0.0647889203625303 ;-1.1034998115788908E-4 -0.022092854714491135 0.0 2.1157609853095036 0.0 0.0 -1.761477149131333 -0.06261719118908209 ;0.0 0.0 0.0 2.9707057709787317 0.0 0.0 2.4943964115729904 0.0 ;1.3911136375164618E-4 0.023354151973346195 0.0 -2.4209163222501453 0.005925845677520204 0.0 1.914698371107228 0.06630463847711329 ;-0.049705570632092966 0.0 0.0 -2.0428329106985688 0.005488603622798681 -0.01990283088084261 1.7009353783414298 0.06055741095430435 ;-9.173495326001724E-5 0.0 -0.021679172160133636 1.7274583130848384 -0.004870976326741581 0.017117735010714286 -1.4929415326686075 -0.052288381337579806 ;0.0 -0.0035008352908750978 -0.0029959400889475072 4.600548325355589 -8.560867616730014E-4 0.0 6.826093715818245 7.030078135616122E-4 ;-0.011662397058808904 0.0 0.0 0.375492167455537 0.0 0.0 3.2127361081906636 0.017400289539529587 ;-0.6294528469357095 0.7645219266652898 0.7386465294473874 -0.6239449300702808 0.9634622089751472 -0.77310766966295 -0.35727268568149717 0.6098402679730563 
1.3963061815909934E-4 0.2948625831985251 -1.361349212292652 -0.016421114266187708 -0.022848317679796313 0.0 0.33655609469859366 -0.011223425369484353 ;0.011916922827905753 -0.35007114779616083 1.658520351826668 0.014461096399394812 0.026962381877066875 0.0 -0.4194215237355138 0.013052192570155835 ;-1.6313461629525008E-4 -0.3408022380811106 1.5993497977299356 0.020454030862080103 0.02636957275068505 -0.005054896271575382 -0.3993129578573785 0.012726076699663672 ;-1.1047152164116659E-4 -1.8158172047457868 -3.2456939061851977 0.039627753787053674 0.05969721352035586 -0.008599696122213573 3.9520209840637492 0.03546792174414989 ;0.014110243603016 -0.4447665920685396 2.0917679235047864 0.024862856228103 0.03432976107355626 0.0 -0.5218619210685955 0.016719489477491616 ;-0.012023227023026791 0.3585060402378842 -1.674381446502713 -0.01508649161705458 -0.027609163284617468 0.005390963949080709 0.41483356122722215 -0.013877248493954528 ;0.0 -3.7746451122470783 -5.9669347431345505 0.0719225522408466 0.10698643250472842 0.0 7.735777791839788 0.059245499615349875 ;0.009488138955335814 -0.2945768665125682 1.281425587130225 0.01732709135391324 0.022666341840963816 -0.004394207191744943 -0.2976582921039859 0.012873920591716409 ;-0.7098037935373138 0.4428303890359757 0.20500612824277886 -0.6303999319726505 -0.6004122867251915 0.8451921033008354 -0.15855141836861208 -0.7609327166062827 
0.0 -1.4211436819914887 0.0 1.1174582178414572 -3.152592199195263 -0.42999002295122285 -1.126278472767042 0.09216653673438151 ;-0.004771124875444064 -0.6158200488803567 -0.0107612946915705 -1.3931741657619368 1.4238910277859949 -0.11393027307008363 -0.9288540536996798 0.03562133379608524 ;0.0 -1.6544738984372602 0.0 -3.583257047328173 3.6784558591853096 -0.044150835409583894 -1.6573009668088672 -1.6324339004706193E-4 ;0.0 -1.2157557654162496 0.0 1.016346181621911 -2.7798904421215607 -0.3708492326059223 -0.9484055126586419 0.07903386278035139 ;0.0 -1.1166742795344284 0.0 0.9946293921312526 -2.638132342016001 -0.343724524127647 -0.8554549314064721 0.07302812891605724 ;0.0 1.6850593006834096 0.025915759039446717 -1.363359714133577 3.7950367737043886 0.5129901100940611 1.3351505199187301 -0.10971983242932713 ;0.022022053055682243 3.7462654966324975 0.05126598954139999 5.016152289316908 -3.763363585808093 0.7343474327523221 3.892106835614299 -0.1880241196773735 ;0.0 -1.416809428927673 9.832456750019414E-5 1.323060801797006 -3.4498810020449393 -0.4419136963686011 -1.076856866094707 0.09424589450156108 ;-0.8870082006235518 -0.11231262696172983 -0.7654706932089013 0.10954961390458462 -0.22767300985427164 -0.27160940569092995 -0.05788324632033204 0.571566376723009 
-3.884840639446904 0.0 1.5676025474011468 1.1776595398428145 -0.11082162062038721 0.4898310151146409 0.07701172157403892 0.8329243452363372 ;-1.2893856295107395 0.0 2.8469029807489776 -1.209380886248256 0.0 -0.21748613012755422 -0.02964857227842926 -0.4011241210557843 ;-3.340579930940439 -0.025386452667386712 1.3740230223350234 1.0115227985732127 -0.09490294237705241 0.41892727880951114 0.06618660106682482 0.7131799499951409 ;-2.163785346560354 0.0 2.6163127906899386 -1.641672458960694 0.0 -0.2554060460964071 0.0 -0.44778320349959505 ;2.8807015711013917 0.0 -1.6738296445415766 1.859387631467021 -0.013485237770875185 0.10658226496468623 0.0 0.2218287176578878 ;-0.817472374897881 0.0 0.7802272794588201 0.337563118475775 0.0 0.08355806891420561 0.0 0.1451242914427641 ;-1.3448401669835468 0.016844068407207417 2.7903075464646157 -1.5933192153709508 0.0 -0.3252133657474592 0.0 -0.5577075987253491 ;2.4242428072317352 0.0 -1.09977627781522 -0.744247883265058 0.06766484513438381 -0.30017132138715485 -0.047281138306636446 -0.5086237035613628 ;0.18679900905046143 -0.9613781017978629 0.15252476045570873 0.4598757900228674 -0.7694951355831197 0.6224114787609203 0.8263112708296816 0.5490045009782865 
-4.582227014424035 ;3.186411363404503 ;7.496322714662887 ;-2.933482192185785 ;2.501997328468843 ;-2.5223615378742408 ;-2.7120474335822022 ;-2.2779378038549236 ;0.8288374963966654 
