5 7 32 32 32 1 
9.87783516732571E-4 0.011959737702161036 0.0027817448093760857 8.68573061302569E-4 -0.06029011462185109 0.05614908748394488 1.8385477211244538E-4 -6.454809911011496E-4 -7.15189687306713E-4 0.013392077792615201 0.005822692337691038 -0.0013056203655035794 -0.026396043849797386 0.0 0.0181631011306236 -0.013176998746631852 -0.002052356101288165 0.019010747091709544 0.0 5.331625275250996E-4 0.0016516519800273506 0.0 -0.04461764357824264 5.890113478501223E-4 0.0015353703938601221 0.04183354164192542 3.224750628700653E-4 -0.001580946336791901 5.080849769549709E-4 0.0013033662337292983 1.6839376887105132E-4 0.0013409514234495057 ;9.489522729399628E-4 0.009425039388507292 0.003060691329163851 0.0010907683663241245 -0.061650137973062576 -0.019957820485958462 6.065633391530785E-4 4.2532627764296435E-4 -5.383412080504174E-4 -0.02539547277167978 0.0 1.8190961031675168E-4 -0.015530951626103993 0.0 0.020113372463776102 -0.006436266267109691 -0.0010904424085386984 0.02097156940354927 0.0 -2.5163258346929176E-5 -1.1849346148139817E-4 -8.371687146150634E-4 -0.027321817410190907 5.146517017609866E-4 0.0 0.022732506785826972 0.0011970921265621027 -0.0012763813901488094 6.368340501472762E-4 9.745918511006482E-4 -0.001109931538560549 0.0 ;0.0 0.010101978462087132 0.001284289228106131 3.874084734575926E-4 -0.06756041314277647 0.043364618145878824 -9.700703496010586E-4 1.620260150748312E-4 -0.0011878094554020726 0.011933129310128215 0.005421926914702216 3.1678213924067253E-4 -0.02425155455407345 0.0 0.014699046577475713 -0.007210659554818004 0.0 0.012941167004029084 -0.004018966113484128 4.775799115048042E-4 0.0019077669036637235 6.423518502427684E-4 -0.03754131081904823 4.070757160498942E-4 0.001732801910771198 0.03808868897882751 -2.2987906116903376E-4 -7.393544382415323E-4 -9.769214396829645E-4 0.0011204102757344226 0.0 0.002158099962526423 ;-3.518810191717018E-4 0.0048987541488303 0.0017464064922592874 5.180660582370815E-4 -0.020649652106327333 0.05619946268431734 -4.8276335944568913E-4 3.0234585684165837E-4 7.121491373756244E-4 0.04055911427659508 0.005916020775581565 0.0 -0.020231423919880493 0.0 0.013052738915978706 -0.015269538418641012 0.0 0.009660246894313003 -0.0028417815220318455 7.793281678689937E-4 0.0 0.0 -0.03191671423856781 -8.58577107154592E-4 0.0016722925864629257 0.03429317702849802 3.3055332053115005E-4 -7.487992917711069E-4 -5.54052519150707E-4 0.001408342943025835 0.0 0.0 ;7.968262976848418E-4 -8.925525466527786E-4 0.0 -5.91619951347715E-4 -0.03312199622169186 0.11333618235811052 1.573298827055721E-4 2.366451269694858E-4 -0.001055205189311234 0.018898706276097653 0.010005936789705043 -8.691896776103644E-4 0.004358083921292145 0.0 -0.01025977681595173 0.0029906024335182653 0.0 -0.0034165743239131224 0.0 -3.561409590747084E-4 0.002603363637372189 -0.0010957945101274567 -0.009613706888493855 0.0010556112153151161 -0.0018056900573971287 0.0034000975136473633 3.282238288004793E-4 -0.0011904018429025498 -3.995026978522941E-4 0.0017148822273232952 -0.0011408011606042156 0.0 ;6.34741198705143E-4 -0.0575971717088277 -0.009891232230588106 -7.62173146759228E-4 -0.39387479003245895 0.22693519963268113 -5.212636696129473E-4 0.0 -2.736821784116199E-4 -0.3530016925510473 0.022251940386940682 7.899545607130144E-4 0.11402942925536655 -0.0017616102193348893 -0.1325386921342801 0.2974941105921007 -7.908199228108023E-4 -0.09875204663990189 0.0 -7.22366922127449E-4 0.00485093729372054 0.0 0.23571489765501458 4.781365016476258E-4 -0.007784130673407367 -0.16186654120942595 -2.3859576502815048E-4 -6.443692170755952E-4 -2.517312278293707E-4 0.0 7.606898235918344E-4 -0.0036056985084998634 ;-2.3891895606290614E-4 -0.15740047484944264 -0.024167482642037334 0.0 -1.163479242377391 0.39758819075148233 -8.65080264693298E-4 -1.3266297584587825E-4 -6.903742877523598E-4 -1.1453613197577757 0.04278295878233114 0.001659270121243761 0.33079279902420444 -0.004499359183861022 -0.3738924667118129 0.9042016482165607 0.0 -0.2782531893063792 -0.0027101838806023334 6.016509278922555E-4 0.007918795161766617 6.605083990612662E-4 0.7383312298527395 0.0 -0.01704844369115587 -0.4992097190625232 0.0 0.0 7.032584816262841E-4 0.00196371333523263 0.0 -0.0072763813027921 ;-0.9024242293475868 -0.2381893240246984 -0.4028846059976765 -0.7375071606768082 0.13190848620124762 -0.29800911356849946 0.8939469418183872 0.734158566612698 0.8364046632697859 0.07476860285618603 -0.3722436350990761 0.7025501474716551 0.13403012554171934 -0.539671086599572 -0.08014832404748584 -0.052315665379862875 0.5242928872019939 -0.14188882153591398 0.2571040717894477 -0.8377202836390656 -0.5045259675898688 0.7696596125618707 0.006083403099311102 -0.9658177681372997 -0.42630862821987203 -0.08142289124374957 -0.7909322408375559 0.645469200010109 0.9541402880867318 -0.5938484204904992 0.5893675124603988 -0.5164480880624294 
8.659041900365091E-4 0.0010897324411095308 -0.235160029888778 3.299511075560486E-4 7.639225618601674E-4 -0.0022367178734298957 6.04446544831085E-5 -8.88799317089556E-4 8.739421963065492E-4 -0.0017033890880845393 9.243421300205343E-4 0.0 0.06224961963097811 0.0 -8.128386755107321E-4 -5.924958260536914E-4 2.866370605096202E-4 -2.3228013763205847E-4 5.329185911798816E-4 -0.007087738220235687 -6.579308508347786E-4 -7.84135804874967E-4 2.24932058295903E-4 -0.10829364473815663 1.5404378825244067E-4 -6.595492903649318E-4 -0.3025644210491287 -1.7268737923015206E-4 -6.456260510404317E-4 7.501505231557958E-4 2.3516629483086678E-4 3.756659531035638E-4 ;-7.797662492041153E-4 -5.275044603389909E-4 0.20396060809599803 -7.009477809223203E-4 5.328904567755904E-4 -7.81142845884423E-4 -8.727230762620732E-4 -9.034779758119662E-4 -9.425750204077544E-5 -5.584533750251813E-4 -9.196850690398504E-4 0.0 0.20041265137025047 2.395904815471679E-4 6.619623601279457E-4 -8.373522850675929E-4 8.4930384002108E-4 -2.3499282286518382E-4 -6.129183452631622E-4 0.0 -9.10673921818185E-4 -1.9102802711437925E-4 -8.199336824605706E-4 -0.32281697030445256 -5.022713548926991E-4 7.46068863335386E-4 -0.29611129838891365 5.536932863070355E-4 -1.7157346089715595E-4 2.580929818813756E-4 -6.915111120038203E-4 -4.6989506767365684E-4 ;7.832591378293724E-4 -5.160120070371293E-4 -0.054089635760023555 -8.681521314463302E-4 5.618699478105553E-4 0.0 5.581631197082881E-4 -6.800817765504219E-4 -1.0348883823603416E-4 0.0 4.130119353336033E-4 0.0 0.06771474732543362 1.8501793599848924E-4 7.359410878332309E-4 8.381391862023056E-4 4.948058747718667E-4 -4.985643172767415E-4 8.018612672386983E-4 -0.003831046866990816 3.999472646851327E-4 -2.8210056867644304E-5 -8.366026165769645E-4 -0.11701759720152537 -9.702357627349158E-4 -8.943569232976052E-4 -0.1830609373819997 9.206900806017224E-4 4.1382911082750624E-4 9.480138373034261E-4 1.8370377788933E-4 1.6625600503015968E-4 ;8.146044417392262E-4 0.0 -0.18535141615786244 7.338220684638054E-4 7.724785994012914E-4 0.0 6.195082657429633E-4 -8.047218457696282E-4 8.773909849671443E-4 -9.216382459537127E-4 -5.932212519305251E-4 -0.002789002841040323 0.054663754098389715 4.8120978443635693E-4 -9.704232614917779E-4 9.058764422057007E-4 -2.323090773941818E-4 9.339698979000832E-4 4.8159544063106714E-4 -0.0057980406342738175 8.008733146578833E-4 -3.310085284835697E-4 5.278512767979446E-4 -0.08873593401695343 4.261510527831956E-4 9.058582396104268E-4 -0.2516873190686583 -1.8135770222712727E-4 -1.4933696151357388E-5 -8.589089907258266E-4 -4.0507207810935967E-4 -7.112665079662618E-4 ;-7.542029815380046E-4 2.2667409012468268E-4 1.454817195650956 5.804074957228629E-5 5.424988904746878E-4 8.041497759242362E-4 1.7556442343728184E-4 -8.245653584410576E-4 -9.248152450815566E-4 0.0 4.1926868287339497E-4 0.0 0.9999795544372653 -2.562040837745791E-4 -8.255163430837995E-4 3.706263784944261E-5 6.7831701225904E-4 8.493073689738602E-4 -3.1530889107872E-4 0.002042236769636956 4.0430187475654983E-4 -3.4723425838751524E-4 6.557486333968321E-4 -1.5235693083807096 3.800724270268772E-4 -7.020186109516741E-4 -1.1194926573942487 3.941343835448767E-4 2.4082350599304036E-4 -8.186452216645183E-4 9.212609172408827E-4 4.901353462698904E-5 ;-7.200026598974477E-5 -3.340218814759635E-4 -0.701670950290111 5.013834429082128E-4 3.52738737143998E-4 3.023492845456218E-4 -9.591340528095526E-4 -8.61390082780691E-4 -8.628439936364064E-4 -6.41252178662944E-4 -5.889941680830322E-4 0.0 -0.4316939416136157 4.0478380205127834E-4 5.494221077255984E-4 -7.6494582026383E-4 -6.927506333295657E-4 -2.489550530995728E-4 6.863203204750346E-4 -0.003112030297004634 -3.126815602636341E-5 -7.702923202869609E-4 5.453894512080816E-4 0.6445555890192692 5.519360394554608E-4 8.142157655353624E-4 0.4151523039244878 -6.731267226928212E-4 -3.2614666625825585E-4 6.374375870314358E-4 5.634216689939871E-4 7.645524931004051E-4 ;1.0627951982326178E-4 4.460958066321343E-4 0.23838854728874526 -2.947762426721222E-4 1.2021790420951449E-4 0.001852475230752734 -7.36826866685991E-5 3.547826867752209E-4 -1.1597904516343818E-4 0.0012575902068546819 -1.1566380789756033E-4 0.0033991882724633167 -0.045215371809532466 0.0014283674628276927 8.621172329877381E-4 -1.788641479428098E-4 -4.4521356678876454E-4 8.069678909991069E-4 -6.277839492394477E-4 0.007737488808673296 4.34237407587329E-4 5.0066318791863314E-5 9.288274373659383E-4 0.10639451458262916 -4.2651613017529187E-4 9.279320265524593E-4 0.29361750712036394 -2.482343369244301E-4 3.31947542214352E-4 -5.047838623223735E-4 -2.544272688865832E-4 -3.9650218629892065E-4 ;-2.0850084976707382E-4 -0.001216003450029361 0.19109644311769086 -8.9216594377315E-5 -6.217326832792692E-4 0.0015315205760964405 -6.181975901287646E-4 8.987992756429856E-4 3.7814225000312566E-4 0.0013501550363460154 -2.0350669848818239E-4 0.0028175764178138066 -0.0366876813193065 0.0 3.092314101849167E-4 8.413715329330532E-4 2.1961273657041742E-4 1.0741363270294235E-4 7.965867321060014E-4 0.0 -1.038061082913433E-4 -1.5041205941129055E-4 -9.888122367968126E-4 0.0874467875851999 -5.891917357636106E-4 6.136675350077023E-4 0.24586870589523124 6.197269854926749E-4 6.029630633626856E-4 2.8782840567649837E-4 -5.899785834307193E-4 9.257949942436545E-4 ;8.743880042362851E-4 -0.001023238117917515 0.22515611738296648 -6.134792730127221E-5 -3.949128422470649E-4 0.0 5.832057600020503E-4 9.216615878523716E-4 2.521590093090241E-4 0.0 -1.1210504003546024E-4 0.0033587756007517396 -0.042063727730050654 0.0 -7.009408149446445E-4 -4.0249869858757434E-4 6.575599376535298E-4 -2.893849249539941E-4 4.289369694178441E-4 0.0 7.133397979896649E-4 3.137837749559684E-4 2.571425233253757E-4 0.09871895439761767 -2.2078567973059292E-4 -5.330622106629247E-4 0.27498108802675164 -5.641814074201044E-4 4.565507874799953E-4 4.4016697845739196E-4 -2.2129122582469874E-4 -4.143229031218352E-4 ;6.134109871851594E-4 0.0 1.4529765904094802 -3.463646748691207E-4 -2.9552504864012566E-5 0.001224365526692244 8.772325263134982E-4 6.670971677665661E-4 -4.344852509829029E-5 7.64458731962539E-4 6.134626764413595E-4 0.0 1.0012489264136277 8.727191672051554E-4 7.639099769498636E-4 -3.6997932599897813E-4 9.732754751959411E-4 2.05405046165267E-5 5.087384710431751E-4 0.0 -1.1505288121655976E-4 -5.571198500713094E-4 -7.901939394947836E-4 -1.5473127247182101 -9.5117814539063E-4 -4.900191270179405E-4 -1.1420184861223124 7.53159335720784E-4 -8.359108573903471E-4 -4.953915943452834E-4 7.149127117033797E-5 -4.5324906365798044E-4 ;-4.440619849666318E-4 0.0 -0.19928318401545655 7.093761707555995E-4 -8.312137801868095E-4 0.0 1.3463929022617387E-5 -6.425205443202031E-4 6.305844593537588E-4 0.0 6.010641574386115E-4 0.0 -0.0479941210649194 -4.5319173554434194E-4 -4.336041148782058E-4 4.124876730084454E-4 -7.745587429222223E-4 -1.5937044373242365E-5 6.347052071554887E-4 -0.0038271290071990533 9.39555832345537E-4 3.2434759740384347E-4 8.796779281851226E-4 0.06706566781270482 -5.083980976731454E-4 -1.803996743632973E-4 -0.036566075383524806 -2.218018097635819E-4 -1.0495496398022142E-4 2.0029432147257648E-4 -3.4021199834814324E-4 2.767437597650468E-4 ;-8.236671863685692E-4 0.0 0.17267155598022607 -2.1420502040068963E-4 -4.27691690905806E-4 0.0 -4.553926967918878E-4 9.813680474244005E-5 -7.670271296981038E-4 9.149214891932639E-4 -9.641796469686737E-4 0.0021686451200876662 -0.053130884026855646 6.066187795353326E-4 -1.049841594600496E-4 -3.789268156906012E-4 -6.698720402947857E-4 7.161029649445413E-4 -4.2203216085397936E-4 0.00629025781649276 -3.222884891764994E-4 0.0 9.017475363951446E-4 0.08502213886679459 -9.721093071426103E-4 -8.711987919786942E-4 0.24276632879673748 3.689493370002401E-4 2.592415514404063E-4 7.334499702899461E-5 9.682621787069301E-4 6.41978069381573E-4 ;7.097579591469005E-4 4.2118453051023975E-4 -0.4334175209700265 0.0 1.204943145478449E-4 -4.997491416695325E-4 1.3959876730003235E-4 -5.316390571319902E-4 4.6061569386683123E-4 -5.299310467561218E-4 8.584224136559985E-5 -3.3282231543923477E-4 -0.3375824479763285 -7.825686375388068E-4 -7.30983727592567E-4 4.371813414025704E-5 -3.992194381912197E-4 6.510390617019583E-4 6.729859880879859E-5 0.0017326731181867368 -4.1264963484180354E-4 -3.704057983493454E-4 -4.773973119575467E-4 0.5292240268930843 2.1217287880809677E-4 8.338037533214219E-4 0.42447743325139625 -5.394752985919637E-4 2.510516708602391E-4 6.535288166304629E-4 1.339614906618852E-4 4.047509671117484E-4 ;-9.698707419809701E-4 9.285078643188812E-4 -0.12521784494208096 -3.641769847099327E-4 5.830383030094151E-4 -8.644425685901356E-4 -6.437351414033179E-4 -6.230620389781466E-4 5.704871741165515E-4 -6.623505469849037E-4 3.358070742674844E-4 -0.001769430450886481 0.04610510056389313 8.952816736163005E-5 8.328062952105017E-4 2.999625590238423E-4 -6.459771756594587E-4 -6.337761971923261E-4 -2.8118465285163123E-4 -0.004580819472008163 1.0817390323373071E-4 5.261184603487893E-4 -6.167139287146023E-5 -0.08322189946253095 7.042478716651599E-4 1.7044204402404537E-4 -0.19351584771092814 -7.428637314525889E-4 7.830905092346835E-4 2.960115584908049E-4 -9.184979486525118E-4 -5.633668000812976E-4 ;-9.639920104109426E-4 -7.376776536131432E-4 0.4692487838621124 5.96360284405548E-4 6.011420206813E-4 -4.619465859361374E-4 8.356527193970481E-4 -1.5348473349313855E-4 2.517264768853268E-4 -2.3605212538239782E-4 4.7488027736624673E-4 0.0 0.3506768882095609 -3.0698021174161056E-4 -9.296163444178556E-4 -2.8331592535038754E-4 7.773631761808583E-4 -6.908166318525498E-4 3.233195230454917E-4 0.0 4.891380992206344E-4 3.919413228987679E-4 -7.660219506978478E-4 -0.5434481336029221 5.482267697098443E-4 6.913365228057934E-4 -0.42549229929099347 7.824626029549247E-4 8.430689730889597E-4 8.918120700769664E-4 4.1677708723789937E-4 -8.785837858387785E-4 ;8.02478407328116E-4 2.5642523281880103E-4 -1.1297186146776308 6.356921516984355E-4 -4.4814190728294413E-4 0.0 6.796325448785021E-4 -9.556378912041026E-4 8.369201851947868E-4 -5.064564453849341E-4 2.606764667285143E-4 3.6651108870311584E-4 -0.7868483558205129 1.0583783029158086E-4 5.930498575476812E-4 8.297426598112576E-4 7.383301770506318E-4 5.005795079986553E-4 -7.859704111925368E-4 0.0 -5.405840544409768E-4 -2.1265559143300454E-5 -5.221472777443985E-4 1.205514823558869 2.0812535415339642E-4 -3.827426104254453E-4 0.8951663688139003 6.590715915484798E-4 7.447138231467319E-4 4.912431727513821E-5 -3.309589758371295E-4 -4.753495730410437E-5 ;-2.0563710404571288E-4 6.710959812609125E-4 0.139642119188503 7.368148826058791E-4 -3.5694680749789404E-4 0.0015915864094813966 -9.47867780809595E-4 8.269444096540901E-4 0.0 0.0013220478479571613 -6.011035014045139E-4 0.0021584874358115936 -0.024552003910476135 -6.280244893324512E-4 1.8154803933483695E-4 -9.540814693669927E-4 -3.0239755686011275E-4 -7.558514582515405E-4 6.809372708002167E-4 0.0 9.376854610214739E-4 -6.449442030274082E-4 5.251534876882834E-4 0.06037300377148652 -2.665915192771745E-4 -6.980912550863126E-5 0.17415907028571725 -9.165450959118473E-4 8.95592643833334E-5 7.880066064123413E-4 2.3010761217785516E-4 -4.3412107197084724E-4 ;-5.255453807869629E-4 3.813146179156135E-4 0.3566313079567316 -4.2324400677565564E-4 4.344067580452944E-4 4.299323323927804E-4 -1.337635571226892E-4 -4.3414718590052367E-4 -6.419856845665679E-4 -6.175730961010766E-4 -1.1567897480599685E-4 -3.965403239345315E-4 0.2890244141771576 2.1042296197896613E-5 8.453824116229652E-4 8.686366730172296E-5 -1.890363141859089E-4 4.4691800032050424E-4 6.08304976865553E-4 0.0 -6.660724786288029E-4 -4.1248683603377656E-5 -4.43864791531757E-4 -0.44864447333846813 -1.552717752947133E-4 -3.5724060955785183E-4 -0.3715241340992329 -2.7649538567287035E-4 -3.8795437087900674E-5 -7.668888668286383E-4 1.713658792516554E-4 1.5388370510682224E-4 ;-6.359279372404697E-4 8.583710193394396E-5 0.07409046697791896 -1.1201674731749832E-4 2.1845457808359483E-4 -4.4647791419230885E-4 -6.12044540543191E-4 -8.40282639500473E-4 -8.834050955641437E-4 3.7086669208155805E-4 -2.6767733375181516E-4 0.0 -0.009828204653776857 -6.790621090483399E-4 -4.945936213384914E-4 -6.991859941902432E-4 -5.252436025079057E-4 -1.79691157828367E-4 7.579320088876289E-4 0.0 9.755117401223831E-4 5.293094518599613E-4 3.673544384150409E-4 0.023803781802036936 8.115327800599844E-4 -3.2729031208449414E-4 0.07819044911409567 -4.2270014539145184E-4 5.241624301707276E-5 -7.821400337867854E-4 -2.199369316844623E-4 0.0 ;-2.758013923317562E-4 9.151722449456144E-4 -0.21743096713600737 6.107257129558442E-4 -8.95659662711061E-4 0.0 -1.1677836753792772E-4 8.445714641422992E-4 -2.66136758691743E-4 0.0 -8.65826031422548E-4 0.0 0.05833610056126974 2.308283179936652E-4 -5.009429140145452E-4 -2.7870022124336526E-4 9.666352447272334E-4 1.8470135216418015E-4 -8.332471091092867E-4 0.0 3.950490794907112E-4 -1.3809270449590219E-4 3.2104404451993183E-4 -0.10006985914028484 -5.915221026782678E-5 -4.702436306054198E-4 -0.279517310223426 -6.577685751492041E-4 -6.026745319684104E-4 6.413711621268319E-4 3.1546945391881397E-4 3.20452598924205E-4 ;6.476050055180398E-4 0.001140099925437971 -0.1649248956938803 9.708377111472257E-4 8.872917021953305E-4 0.0 -5.43741163665439E-4 -4.046443243447254E-4 -9.232212202421603E-4 -0.0012192395671031967 -2.314334522737116E-4 0.0 0.012391566207462337 3.2436634756160014E-4 7.349435232248065E-4 -5.129911314238694E-4 -4.839981185650253E-4 6.247593505531827E-4 6.775260557347814E-4 -0.004588800052647398 2.687748550616661E-5 2.10399594358202E-4 8.144618303135651E-4 -0.02610079495915705 -7.3500643019447E-4 4.966695991609401E-4 -0.14046436458906572 -6.260915381317038E-4 4.015882631216189E-4 6.857722643290027E-5 -5.586686281264953E-4 0.0 ;-9.152908389107865E-4 -7.417088876984983E-4 0.19698747809550035 -3.3678615023647706E-4 4.1981490802566563E-4 0.0 9.699951411466018E-4 9.109060757926065E-4 -5.477548143324242E-4 0.0 -2.1047889799857014E-4 0.0 -0.05577966789637136 8.879992750848024E-4 6.014257435918834E-4 -3.455855139336373E-4 2.8811236005302937E-4 5.233689689242631E-4 -2.2387006389610548E-4 0.0 4.899212734868025E-4 8.555167369973144E-4 8.779430798887755E-4 0.09216690478386874 7.649918458462667E-4 -2.763762444408423E-4 0.2608221501530483 -5.322468494023202E-4 -1.5753733744617148E-4 1.0443220622585676E-5 7.507664338024651E-4 -3.054807004014848E-4 ;-3.153723627641582E-4 -8.072471807694689E-4 -0.9329186872588366 4.851830147457992E-4 -9.476943786294454E-5 1.1513243284922369E-4 -6.901336241123239E-4 8.664312192762516E-4 -3.6713319225594745E-4 2.1122402104177318E-4 1.6534600977443408E-4 4.4541838612670965E-4 -0.6589831577159048 -4.8110911893954584E-4 4.2419863313763827E-4 -5.146652693419806E-4 -2.0080679220233993E-4 9.138590087410286E-4 3.8443713561316654E-5 2.113726184734469E-4 -2.820441787731078E-4 -5.680973182546889E-4 2.768045779698769E-4 1.0164737879051418 -3.549102277790561E-4 2.4486812556167464E-4 0.7634562729018733 6.867015969100923E-4 -8.581087408080358E-4 3.4757191140221387E-4 4.796559824347786E-4 -5.478100310667612E-4 ;3.39387441515629E-4 0.0 -0.2529521409010633 -9.762795296189067E-4 -6.866358304437976E-4 0.0 8.531112354732761E-4 5.01179389738834E-4 -7.088044750693767E-4 -0.0018600130303899906 -2.044276395681235E-4 -0.0029019736707407186 0.06668937010858408 -0.0011282736343669424 2.876071755076719E-5 -8.494666717183062E-4 -3.031372261387748E-4 -2.7972286549393546E-4 1.5772008430130758E-4 0.0 4.095870950795436E-4 0.0010807978196258397 6.958297238569178E-4 -0.11581849489117285 -4.382429056600173E-4 -8.247592367806989E-4 -0.32334205743933264 -3.2321885730552145E-4 3.2553782569964986E-4 9.607588798728762E-4 -8.571032956591386E-4 0.0 ;-9.39007037769379E-4 9.952454516436828E-4 -0.06551950678313252 7.831031452371675E-5 -2.8448326631497195E-4 9.393334000295675E-5 7.252898525790329E-5 5.633161951460032E-5 -8.470109551124567E-5 -6.549104638455887E-4 -5.753431291602967E-4 0.0 0.05833174927796288 -9.779086390260744E-4 -8.493875852139529E-4 -8.583629642888368E-4 7.792790350334201E-4 -2.2874995969390433E-4 -4.5824895406380096E-4 0.0 2.753910022868734E-4 -2.994330690433465E-4 -1.2070538476517819E-4 -0.10416441278149506 0.0 7.532452912869328E-4 -0.17787249572591707 6.052650823349851E-4 4.55185054982514E-4 1.1250953172301676E-4 -5.864309417859876E-4 -9.224306884449204E-4 ;-2.1526572536615125E-4 -8.875817672625848E-4 0.6481040930332563 9.619684522559531E-5 -7.902574597717048E-4 -8.789881341790783E-4 -8.757702972908045E-4 6.136854498117335E-5 -3.809412960203288E-4 -3.889015527648163E-4 -1.598690636460299E-4 6.910557893214208E-4 0.4739150283386988 9.647738971745718E-4 -5.676801308639584E-4 8.467127972771137E-4 1.0850864104089512E-4 -3.6476193133088737E-4 4.5307331513291105E-4 -0.001204927093791116 8.182339159858421E-4 -4.811108063117177E-4 -3.4774722318325056E-4 -0.73832142963949 8.781760708885401E-4 -4.732603104594884E-4 -0.5691705529252934 9.689870079239404E-4 -7.845600470751758E-4 5.333574010591309E-4 2.3032049172195618E-4 1.4838336041538916E-4 ;-1.558238269190505E-5 0.0011457278507104815 -0.20179037242770992 -2.72861079930278E-4 2.617708445917256E-4 -0.0012857663616754837 -9.603156678680859E-4 8.005858886835199E-4 -0.0010184515290369849 0.0 -3.309185417041819E-4 -0.002760786829185753 0.05672288412745605 2.1565749047509892E-4 -5.054277337518939E-4 1.3047424711096086E-5 -7.616567674416316E-4 1.0330658005345617E-4 -5.331513973527645E-4 -0.0065217199429438615 -8.461723815955781E-4 0.0 -5.378730736224468E-4 -0.09464289625577169 -8.606338846662357E-4 8.818589425757214E-4 -0.2687496000429782 4.041280475829077E-4 1.4675827142653115E-5 -2.949419973548884E-4 7.42639894072574E-4 9.443211300597779E-5 ;-8.805651679882575E-4 0.0 0.1702534224352742 -9.263918787195345E-4 8.960906244327602E-4 0.0 -9.478778187724811E-4 -6.008936942635347E-4 1.7836839011495101E-4 0.0012821463629952997 1.4363420911607088E-4 0.0 -0.031251226093482874 -3.9831481597143233E-4 -8.026576698331984E-4 5.869314652009007E-4 -8.872954011594316E-4 4.8563397160289955E-4 -2.499432036988995E-4 0.0 3.2931606447838543E-4 3.022048308145759E-4 5.721849613822723E-4 0.07579309405174839 -9.677812633616994E-4 -5.152250576754227E-4 0.21355554193423906 -2.5687206333164646E-4 7.613870974333034E-4 -4.88822571237833E-4 5.657672688128496E-4 5.575541578360757E-4 ;-2.5022734416075117E-4 0.0 0.2409397946157831 -4.4401244310243417E-4 -7.830072393473841E-4 0.002073138075027408 4.973074455133884E-4 -4.5451076174328237E-4 7.252214809802462E-4 0.0011030649831489717 -4.6808723723036286E-4 0.0 -0.06827832953020094 0.0011831290683963621 -4.0033052881778384E-4 -6.261174413352796E-4 -5.701723390585025E-4 6.943509697592036E-5 -3.604497551683502E-4 0.007387319489913563 -2.903226137903271E-4 0.0 6.59873014509568E-4 0.1155780124573526 -3.5530257468693757E-4 -8.656106056974082E-4 0.3244567839971294 6.455534631396539E-4 -7.388122822432532E-4 -5.486957835979348E-4 8.568817012423942E-4 -1.6651827650359803E-4 ;7.284959720179202E-4 -5.575913058768936E-5 -0.165393169405134 0.0 0.0 9.336708975283155E-5 1.4883792674233958E-4 5.485507557533265E-4 -2.7761008251620943E-4 -0.0010427593340973018 -7.262936337068308E-4 -0.0025090839838741836 0.027511293430718675 -8.302949458416923E-4 -7.719122248994597E-4 -1.2641013326724756E-4 8.922788458308761E-4 7.008357587941394E-4 -4.436236893078182E-4 0.0 -7.260099435173333E-4 7.918595709831102E-4 5.756438991462792E-5 -0.06376838827358541 7.958146901868769E-4 -7.179078139293374E-5 -0.18852991637302155 4.4835560207272707E-4 7.071339455956365E-4 -5.157148654579901E-4 -2.0366647761076569E-4 -8.463676990673491E-4 ;-1.414178312050348E-4 -0.0011327180101204882 0.15393764961304202 8.490722426714962E-4 2.2827856462671344E-4 0.0010216335746547783 1.2687493522719407E-4 -3.128306032663195E-4 -2.6593213544425298E-5 0.0 -4.343181933471695E-4 0.0 -0.04103355214592303 0.0013062287204514559 -6.535625826471029E-5 3.8251643371951653E-4 -5.831914113071246E-4 -1.6705338208454625E-4 -5.758458662993278E-4 0.0 -9.579669599741246E-5 5.70853461066589E-4 -9.011838508285307E-4 0.06938521209514584 -2.938226698647258E-4 1.359728656048776E-4 0.19616805796904407 8.880844141341686E-4 -6.32163998681637E-4 -2.5956138734032854E-4 3.3697597011627127E-4 1.677314313589381E-4 ;-5.526908665053431E-4 0.0 -0.11094697324410428 -4.837007331234523E-4 1.3173661012490516E-4 0.0 -3.7533324760844063E-4 1.5774833061979788E-4 8.50628991148266E-4 3.0668090419323616E-4 -7.528950774451958E-4 0.0 0.05136406687903123 0.0 7.059204985600659E-4 9.133467286817507E-5 -6.339788370828767E-4 -1.4051000818035472E-4 1.8904041569541298E-4 0.0 6.356727015790746E-4 6.933027709580298E-4 1.7211363600578886E-4 -0.09355934605307202 6.283748662017706E-4 6.403985041625865E-4 -0.19106745603845235 -9.444759020284958E-4 -4.32159707243426E-4 -5.709053994362442E-4 -6.817434346501978E-4 1.1585876935221091E-4 ;0.5690583349458198 0.24205593689817584 -0.05833992927328269 -0.5617122033138076 -0.6453888702244757 -0.19868640123733372 0.6895910268151626 0.32466080948876885 -0.3026286392335775 -0.21135140617330705 -0.8159924450881029 -0.17093707652138357 0.0093625600765328 -0.2281639800448283 -0.7877477468961953 0.8819168179154424 -0.4662596639040959 -0.6773362001529954 -0.9051744639110766 -0.1324680918234895 -0.675502023602004 0.2869390406101626 0.321147913132396 -0.020832134172144245 -0.732984139218724 0.9004939910897591 -0.06645854492048575 0.3595417712678184 -0.8171476830062914 0.5752393178734783 -0.7340331016298285 -0.6776113159620294 
2.7380783563268885E-4 -6.54354726782823E-5 -5.864925098095736E-4 2.8310538894447414E-4 -1.9137806468994366E-4 7.025475642480127E-4 0.028015228936959107 -0.011704186176495702 8.830983178881702E-4 -4.7791623243630176E-4 -5.958728275163727E-4 -0.023406107289644706 0.026048959739564462 9.489868700488271E-5 8.5451827979276E-4 -0.5006738518826824 5.97074921713705E-5 -2.77435903189915E-4 -0.06422753605253048 -4.914756398260211E-4 2.147989261302717E-4 1.3025123824879237E-4 5.847120710108331E-4 0.001017915950934576 3.977281496427987E-5 0.03888992913068816 -6.678248740744113E-4 -5.80054629353837E-4 -0.05375116364733026 -0.5732239846626358 -0.10394267175378334 -0.006789698225289233 ;7.773725420763822E-4 3.8137093741083585E-5 6.807720282624349E-4 6.653203769296077E-4 2.5707233024435916E-4 -6.409953481394279E-4 0.011466252572740976 0.0 -7.437394584238103E-4 5.33195720807848E-4 -1.4760970372744428E-4 -0.00797840411272043 0.010630139183005058 7.305852086008506E-4 4.6590381765294496E-4 -0.21171780109137642 2.7127044665771645E-4 0.0 -0.029222787656083295 -8.389798679999151E-4 1.2846355952744382E-4 -5.116626671210384E-4 5.536452770114246E-4 9.678613636828873E-4 -3.7374490689833726E-4 0.015880135029746428 -3.9075028578156273E-4 6.349700174736646E-4 -0.022515396962590514 -0.24419312839805019 -0.0434037233558181 -0.002815886745205698 ;0.0 -2.1283002079104373E-4 4.91573182774106E-4 4.4377734813537504E-4 6.734243688485028E-4 3.0517037106733084E-5 0.009537660732830718 -0.006829292253626256 -9.399552395710103E-4 7.093678279857085E-4 -4.8297995512373707E-4 0.0 0.0 2.1092327339449537E-4 -1.7934770770562054E-4 1.881939868937048 -2.450163147145837E-4 6.065432835206109E-4 -1.7967234399888028 -7.632780910077869E-4 2.660839227099021E-5 -6.178639445022311E-4 5.133450995071933E-4 2.459594236571774E-4 -1.5772816586987444E-4 -0.44190212299482307 -5.842746976865622E-4 -4.958014080685385E-4 0.0 -0.6801820259953375 0.0 0.0 ;-7.777616286912518E-4 8.380068301216917E-5 3.7903899091724653E-4 -6.367882541218214E-4 -5.5660038193841216E-5 -8.579726720873427E-4 -0.02796783585548864 0.013088363698204611 5.21490830108829E-4 4.6904641879760655E-4 7.463610400334769E-4 0.02193027940666633 -0.023788709256190338 -9.545474812958943E-4 5.874224424712412E-4 0.4856658440911261 -7.756482717029328E-4 -0.0012236656856766425 0.074354558286167 -6.90375628538827E-4 8.533893782248978E-4 -5.1019413192390094E-5 -7.923348837071718E-4 5.661904754250703E-4 7.866621741908559E-4 -0.031055740819597423 -2.7246649343129524E-4 1.8898656196949815E-4 0.052625182842606734 0.5712131065769859 0.10319849078101118 0.0 ;4.400898482276772E-4 -7.378727350706988E-4 -1.7131301824653596E-4 3.0309173271941185E-4 2.446072110086515E-4 1.7181383640127784E-4 -0.03138223909985908 0.011211307778807645 -1.747701230610387E-4 1.3019344017608661E-5 4.2843439900943286E-4 0.02602593800289821 -0.028506096097204402 -6.249906317738671E-4 -4.074911511829709E-4 0.5651857056853882 5.648921579994737E-5 -0.0016818190450120377 0.07521840376961836 9.278953601856758E-4 1.4307564942952678E-4 9.713247032831093E-4 -9.910688077982685E-4 0.0 4.641888662597356E-5 -0.036224342052975804 -8.629123861036383E-4 -8.350557228480165E-4 0.059867976215904166 0.6539944646080853 0.11797304844051827 0.0068258804271908585 ;-7.124918385090804E-4 2.922478430892195E-4 7.25916269791722E-4 -4.988791005188031E-4 -7.981358974830361E-4 4.34168916547231E-5 -0.010488300763737317 0.0 8.322031046388846E-4 1.911860033833692E-4 9.47914049351022E-4 0.008997168850896818 -0.00901197656456151 8.678645255957971E-4 2.9839915706846715E-4 0.17461647084336687 1.335838459675932E-4 -3.622177079262291E-4 0.022396620418578126 -8.193796518839776E-4 6.386791164033999E-4 4.2902509949706784E-4 1.9582856995799022E-4 7.055480112876002E-4 2.1209815646163274E-4 -0.013791767237786195 4.885762183717253E-4 8.95048529432365E-4 0.017806697951663703 0.2000748521833673 0.03654930951079773 0.002453159247432635 ;2.9939261292546916E-4 -8.023967527008946E-4 8.719216809608793E-4 6.184837480015434E-4 5.536509228830545E-4 1.9901028363034853E-5 0.03412701807693978 -0.014998633404980595 -7.429262386506245E-4 -1.1613980974099071E-4 -8.821837455402686E-4 -0.02793911096731677 0.030789314492308963 1.7129601417033803E-4 -5.764301253181798E-4 -0.5984860900711971 -4.3177527936294523E-4 0.0 -0.08548116538085208 -3.9141535101070086E-4 5.407351979030323E-4 -3.2670462026075593E-4 5.743787499443831E-4 0.0012455152832941362 -9.291210389364093E-4 0.03837416306347577 -1.8027188716018786E-4 1.518055124440252E-4 -0.06355323627344431 -0.7004734075400866 -0.12681359830455777 -0.007747503438348646 ;-1.3187702192733714E-4 2.9126707385180592E-5 -7.071529167569455E-4 -5.012961065380861E-4 8.272326041366316E-4 4.127833299929573E-4 0.01600618893722972 -0.006686303484899498 -7.647889455890065E-4 6.697036447269838E-5 3.9526264044521024E-5 -0.013271565017208314 0.015008095608111673 6.858421546855121E-4 1.4280697542645373E-4 -0.28292090698674627 -6.998500407204752E-4 0.0010723776523484062 -0.040265456881942316 0.0 7.454127311208633E-4 -9.061141380972056E-4 -5.163319456756178E-4 4.3959886221881927E-4 2.9171422209592915E-4 0.02175014598340998 5.293343101994408E-4 9.679204578955048E-4 -0.02993707527335956 -0.3297905389254237 -0.05870662302543558 0.0 ;7.499455180042784E-4 5.391622651885122E-4 2.8395780493526074E-4 3.208860820365959E-4 9.383066470457266E-4 0.0 -0.015240831132430703 0.006766991781153663 -8.193817061286613E-4 -1.2123131205103199E-4 6.272132232425996E-4 0.013139185045873827 -0.0136927062200427 -3.441554316558291E-4 -1.7055032780896397E-4 0.2595413819895162 7.704429815537727E-4 2.3336162164683055E-4 0.041270281634211335 4.802904348476043E-4 4.823052630677717E-4 -6.739019907488833E-4 7.038076966941714E-4 2.0152725293538134E-4 9.594084445139721E-4 -0.016218796236792298 8.495460404098599E-4 -9.51526431577813E-4 0.02861622595378137 0.309606307638905 0.05613275231644527 0.003741085694481058 ;-5.687764962635465E-4 1.6463266212929137E-4 5.026808738542635E-4 0.0 4.3759702750627115E-4 -3.0941555254219874E-4 -0.011085750359887942 0.004809899402557526 -6.574562284338683E-4 -2.9924598217705156E-4 1.6029097860887717E-4 0.009211538960102078 -0.009940896370996469 -6.647988194321033E-4 7.546027765402108E-4 0.18585067877881398 1.8806217401208807E-4 -0.0011532350104925416 0.02364150668479397 8.732505549629919E-4 -5.715899155945793E-4 4.639519523239105E-4 -6.275342920476383E-4 -1.6364396388925974E-4 -9.59586928468886E-4 -0.015027547286880862 8.541302373524538E-4 7.767533293554899E-4 0.02046977671330489 0.21273052045754015 0.03902192375820682 0.002445042235626698 ;4.5922453713122556E-4 -1.9019411019551165E-4 -5.16907509475373E-4 7.065551853616003E-4 -1.1380158462442808E-4 1.1323263508368989E-4 -0.040090355974523276 0.018386577884506428 -4.97259199805628E-4 3.210368289426792E-5 5.030369947879407E-4 0.031855618211638626 -0.036060576101431555 6.560032061403332E-4 6.702380285082E-4 0.7149731357952979 -8.706132119900658E-4 -0.001551330126869827 0.09828228318215296 4.929473856573164E-4 3.810579773034387E-4 -7.773567739391524E-4 7.272527591859064E-4 -9.907713339751198E-4 7.524107357339702E-4 -0.04604610560168636 4.2499488650187754E-4 -5.627011777048502E-4 0.07668068424285907 0.8265834464582993 0.1485350875506103 0.006827817906424162 ;7.219389082494006E-4 -6.905716946124525E-5 6.001276856726276E-4 1.277202820552834E-4 -3.286999912481712E-4 1.5490389748362672E-5 -0.008592659842574428 0.004172113706097796 -3.6795740940122877E-4 -8.468115295182117E-4 9.383237577048728E-4 0.007712778121313699 -0.007719317001924901 7.550544124770046E-4 8.559834500220747E-4 0.1472867579975139 -6.073137171890347E-4 -6.028243336907631E-4 0.02291555443975214 -2.247708650983783E-4 -6.964347367406943E-4 -9.203294945579799E-4 -1.8080084459587314E-4 7.014774127151829E-4 4.8257651227798335E-4 -0.011618546204410442 -9.486241067859321E-4 -9.317008572555676E-4 0.01601846449426942 0.17240916762922007 0.030489252827809756 0.0 ;3.5892415611464925E-4 -4.684010566944352E-4 6.211159253515719E-4 3.10606077085215E-5 -8.054695717565603E-4 -6.80478695707258E-4 0.0 0.0 9.245371038297019E-4 -8.025642707830363E-4 -3.9079740613344536E-4 0.0 0.0 -5.936854454148214E-4 6.752228326332031E-4 1.2493673146131232 -1.413733128062294E-4 3.9506542768874233E-4 -1.192882279661309 -5.936555090742208E-4 5.31988559297687E-5 -2.5145890226574246E-4 1.1953393748983299E-4 0.0 -3.884398710187195E-5 -0.29557932970369033 -8.585522137526501E-4 -2.1620207408953643E-4 -0.017131337194295795 -0.4640967343129225 -0.027118571853814038 0.0 ;-3.945376476850851E-5 6.982060819882942E-4 -4.2602543606868335E-4 1.7833337484327814E-4 -8.36415534306843E-4 3.565314003103868E-4 -0.008149904500096266 0.00539204282038015 6.465745925297142E-4 8.001850918538821E-4 -7.471252770110057E-4 0.007377936169081974 -0.010753875704104647 7.580996856582779E-4 6.691791642384516E-4 0.2018238896610019 2.7689539457773854E-5 3.062868049116473E-4 0.025021709843187502 -5.624914980721322E-4 7.727878647763773E-4 -4.839629364182475E-5 -4.1931049810783075E-4 0.0 6.730862289843023E-4 -0.015279152401976612 -8.866514143865207E-4 7.178709739241895E-4 0.022079239589917952 0.23029125153143196 0.042227304421026804 0.002411409067900529 ;-3.202707926807731E-4 5.552612744418832E-4 2.0537291475231415E-4 4.676365492356494E-4 5.398915306373451E-5 3.9842176221052775E-4 -0.03774055328697459 0.017542778770488793 8.612332695125114E-4 -8.686289306842522E-4 1.610433506071548E-4 0.030752971174537302 -0.03403439316803321 -9.756580136687552E-4 -3.5833901855406E-4 0.6855440251263717 1.0523358789524221E-4 0.0 0.09641095141868086 3.1319401391491803E-4 -4.128134615339077E-4 2.515656564425667E-4 -0.001019569465831996 -5.927241558542922E-4 -1.497064615579217E-4 -0.051055581014010885 -4.6698500231134014E-4 -3.027205855786384E-4 0.07273466965036272 0.8002949650551487 0.145045012141521 0.008479311203159763 ;7.122089514093395E-4 -3.681236169106119E-4 -7.984252017128019E-4 8.54048234135523E-4 5.604411135571178E-4 -6.111552933124359E-5 0.043256153740050256 -0.01810063011028925 6.66854442094316E-4 7.131598328000837E-4 8.168718641206042E-4 -0.03637671219289403 0.0388881514637568 5.217009759870237E-4 -8.330198152652435E-4 -0.7692348506843488 -9.560709374625404E-4 0.0 -0.10595815079388594 6.595357897620785E-4 2.837180776544752E-4 2.5930131719766503E-4 -7.030033219225847E-4 5.921678116217961E-4 -9.197128255026473E-4 0.04964314068765492 -4.8819198353760457E-4 -4.288376180243747E-4 -0.08205414697788198 -0.8932716861220258 -0.16063789642015494 -0.007337252905057088 ;2.674346634590816E-4 2.2452596326515953E-5 1.2765565080943928E-4 5.413897888140534E-4 5.154493877501974E-4 -6.716800242879312E-4 -0.022268248144730093 0.008058615066888793 -2.997563007354589E-5 -1.5490020252663335E-4 -4.909709269131279E-4 0.019129120907457033 -0.02122789263360186 6.46679201149506E-4 -3.5995957505113526E-4 0.4144861346693251 6.70201233745705E-4 1.8021808867375158E-4 0.05013734262519462 -1.5140579931841532E-4 -9.029229152269469E-4 2.2032748360930484E-4 -9.171497318512491E-4 -8.106340696433147E-4 -5.978499559593274E-4 -0.03238851813473759 -9.370078941170754E-5 9.561026621662107E-4 0.04345838906619332 0.4703462164610245 0.08630506053958147 0.0 ;4.8675662676994305E-4 -4.1469199794190497E-4 -5.85195952508872E-4 -6.646887784239545E-4 4.2937673250070086E-4 -7.329490861151325E-4 -0.03245050122270406 0.013956474661861286 4.177842971794604E-4 -7.3498609159489E-4 8.326540636442119E-4 0.028405074108509235 -0.030010139293080013 -6.056414754026427E-4 -2.557387034577106E-4 0.5880910331910137 -7.895897904477212E-4 1.6115763192997858E-4 0.08354346681372762 -1.2428783559769474E-4 -5.478937276956372E-4 -6.808383622491432E-5 -8.763647339438554E-4 -9.251534776216127E-4 4.561827205794856E-4 -0.037827885451253845 5.664264940298196E-4 9.590757795283079E-4 0.06230416405648591 0.6880049898934442 0.12413062264257069 0.00554259012403619 ;-5.8350825066623E-4 -3.5974611495544824E-4 3.6064322878022557E-4 9.727741191571432E-4 5.5985582652E-4 -3.2096940689531453E-4 -0.04484637944508063 0.02040828020015354 -4.942739546706229E-4 -7.550500564062887E-4 3.3577143516554944E-4 0.03717409490903016 -0.04090971030083093 -7.467182046769264E-4 1.466690404331287E-4 0.7924451459695324 -8.121139694866967E-4 -0.001295196464786258 0.10691202281303892 -9.71686560528804E-4 1.810350229607341E-5 -1.5581214254054042E-4 3.9407134059063476E-4 -5.055049761319735E-4 -1.47675753639856E-4 -0.05121207491065422 0.0 -3.321450376590271E-4 0.08371450895643498 0.9154524010187132 0.1653301227669235 0.00993913734521529 ;-7.97148142340098E-4 -3.870841096575751E-5 4.8120899632661366E-4 8.208648142727631E-4 -2.90898509032094E-4 -5.67708814179493E-4 -0.0062727621536109845 0.0 6.596090888774984E-4 6.46637075662968E-4 -1.9029942192977432E-4 0.0 -0.005086943854604423 -9.427949350658403E-4 1.1483716237239735E-4 0.11418498830518793 3.046517298567847E-4 3.7459634115392893E-4 0.016151315209432176 -8.983719384953235E-4 6.013884239340948E-4 1.3490041721236584E-4 -7.35101839868816E-4 4.0776100832538387E-4 4.882543622586668E-4 -0.002097526194922111 -7.808675538472613E-4 9.090735918773412E-4 0.012516123277086878 0.1349520882593296 0.0249470148660283 0.002276846476828147 ;-7.915224831971726E-4 7.314402550107584E-4 2.6433683098186253E-4 2.945743144694206E-4 -9.168801868272949E-4 5.796074611562528E-4 -0.033192152032892566 0.013910988546324693 4.4123847272689956E-4 -9.75045169768589E-4 5.28260745712184E-4 0.0273619172436129 -0.0310529811374053 -3.614855056333137E-4 2.1835427704209256E-4 0.5928169607148321 4.6383428225641604E-4 -0.0014788881950050605 0.07937181098705645 -2.475081514973759E-4 -2.0722303594906583E-4 3.65843223546183E-5 -6.396687403362217E-4 6.089212470558361E-4 -8.626129855372692E-4 -0.04320927425585528 -3.1534641863269246E-4 -6.653619456239565E-4 0.06283772722607732 0.6819959358698441 0.12411778012826954 0.00552598853221266 ;-1.883957611129533E-4 8.879241153850949E-4 6.142755689140156E-4 -5.431886231185802E-4 8.341948150916522E-4 3.184890661264959E-4 0.01435421161060289 -0.006675659864971826 -9.103527847270405E-4 -4.790187991260934E-4 8.956146415896081E-4 -0.011204261326469055 0.012902590101919905 -7.683640429164132E-4 9.07888980734216E-4 -0.25146485886202796 -5.62345814492953E-4 4.5284549915498244E-4 -0.0349768973869798 7.686184297396737E-5 -8.12165908075001E-4 8.488514609467412E-4 0.0 9.040982022069844E-4 -7.726656888900512E-4 0.01569001808462863 -8.443661124387636E-4 8.918085781186672E-4 -0.027007447733949547 -0.28992270973572204 -0.05199136980731307 0.0 ;3.262726520603109E-4 1.4305876183210497E-4 1.7557402488223547E-4 -1.3679934849587916E-4 4.977885628597756E-4 4.6018161799267634E-4 0.015339514487327103 -0.006615314416072306 -2.142831485698159E-4 6.730532245864931E-4 1.986787378896757E-4 -0.01055346808646865 0.014067366593078393 -5.751142373488778E-5 6.758556892628537E-4 -0.28309258764982786 -3.417445785496952E-4 0.001179399252709999 -0.036586504702242444 7.820758807975495E-4 -2.008105815226496E-4 -1.5588981612596963E-4 9.12995053264043E-4 -2.0830616299823826E-4 8.969663648148019E-4 0.017721226548747582 6.010590034835684E-4 -1.0591696121686695E-4 -0.030483521329901373 -0.32536823118610686 -0.05874702413509934 0.0 ;-1.4730672685257825E-4 -7.842156796315414E-4 4.4154407398890434E-4 6.010573017349492E-4 1.114677841219971E-4 -8.282701633926343E-4 0.0 0.006930393330909554 -5.384655093838458E-4 2.5241302455485354E-4 2.0613254236565858E-4 0.0 5.1486366883547625E-5 -7.071854166556456E-4 7.896679048358988E-4 -2.0244534636716227 -7.711743581578827E-4 4.303895440482848E-4 1.9271665290027322 5.109645721481607E-4 -8.511584833087401E-5 7.190998234584199E-4 7.220654548996454E-4 -4.335902701656488E-4 -6.832437782526569E-4 0.4767381805723833 2.554637421565091E-4 3.892002222028986E-4 0.027687881195902073 0.7454038831644622 0.0 0.003887222889054517 ;3.9697517214247463E-4 -9.029954381825976E-4 -8.066208741785236E-4 -9.584473797236141E-4 1.9905676993273467E-4 -3.725281930637363E-4 -0.03604733578089178 0.012707501800810327 -4.928059840845795E-4 5.875409206423923E-4 -5.476492018947388E-4 0.03053191702715829 -0.03354960371507001 2.780228994519519E-4 -1.5883700276689289E-4 0.6381035266230225 -2.4298502160427382E-4 -9.87456159887834E-4 0.09025437136014931 -4.7254631359368684E-4 -7.140718871831744E-4 -1.2512517725302592E-4 -3.2364609110457085E-4 5.240152580104616E-4 -9.230415376336188E-4 -0.048272096667486254 4.6546136658585333E-4 3.2686392185685506E-4 0.06828860140040034 0.7435389064963152 0.13524632872876977 0.007254504933540957 ;3.411671122047512E-5 -4.082835346810408E-4 1.854633558280921E-4 6.034451615919675E-4 -5.565222092294584E-4 -7.14223459091146E-4 0.04469658939515942 -0.01855311540129893 6.16579452501315E-4 3.245328601854538E-4 -4.666615083573816E-4 -0.035121811838967454 0.041178184829225785 -2.2956240627085167E-4 3.9441625777689735E-4 -0.7906006467730327 -3.7808219142260104E-4 0.0013803909525910247 -0.10305299817324663 3.881910422796028E-4 -7.392229489384533E-4 -7.592653504383469E-4 3.23571559856088E-4 0.0 1.709395114734876E-4 0.057585121307121366 3.543170080341482E-4 -8.066535591675061E-4 -0.083239894038395 -0.9107659907341165 -0.1646655831552172 -0.008920697595570161 ;3.629399197365094E-5 -8.135094559765818E-4 -5.848340936244531E-4 7.550748865343169E-4 -8.771326017505476E-4 5.085234103550584E-4 0.0 0.004867132231899798 8.506372293187379E-4 -4.3057347026179767E-4 6.109180049299591E-4 0.0074463778904440715 1.560442830024608E-4 -8.488575738959302E-5 -9.632526234533592E-4 -1.470177983999104 8.252652207022323E-4 -2.623378026994944E-4 1.4078024665732025 5.640123124745077E-4 2.7550368333908174E-4 7.319851601778602E-4 -7.11644253064484E-4 8.473411380285268E-4 -1.3307789458073441E-4 0.3540213832781689 -4.997176778689743E-4 3.8290868235074855E-4 0.02098070629916986 0.5686456267615321 0.03272167377410938 0.0022517996572949837 ;-7.985805276270944E-4 -4.7063737309735053E-4 2.247720113671165E-4 3.7867714879104964E-4 5.734492895281005E-4 -5.584122178679974E-4 0.01774804247131575 -0.007696272955965236 -8.172583559447059E-4 8.670700139075286E-5 -8.314355173640449E-4 -0.014048800003379483 0.016252232313453078 2.9418805514324384E-4 -3.892669409711707E-4 -0.30992234486235387 7.76988047443224E-4 4.970816129477898E-4 -0.048830745705928574 -1.0996229215113009E-4 6.11625481196082E-4 -9.255826585458568E-4 0.0 5.685750638123963E-4 -9.293916985503732E-5 0.019448150587835288 -6.86898352357641E-4 -5.469514017773957E-4 -0.03363335289251619 -0.36808676707381077 -0.06572834310914985 0.0 ;1.0212581889925619E-4 6.985593759745232E-4 -6.501697877762563E-4 -3.972648023946394E-4 1.5440610963911013E-4 3.5342868524243455E-4 -0.03926144891028424 0.016835158441451052 4.8075911500647167E-4 -2.7444260487445105E-4 5.031175359102172E-4 0.03188851976963771 -0.03524705185122001 -1.4674039979624916E-4 2.353726703236405E-4 0.7111416563470381 -6.459533958802194E-5 -0.00142627082322606 0.10173079802965987 5.364013572020055E-4 7.636723959006272E-4 -3.693152371117915E-4 2.923522916509304E-4 -0.0012663059825982266 0.0 -0.04575105119850537 5.583966998038035E-4 -5.196417710190574E-4 0.07602535445690256 0.8292439763818155 0.14932532311929356 0.008898045717747447 ;-4.1214330842556017E-4 -4.768701533389396E-4 -7.565457173003407E-5 2.043958162633207E-4 -7.118315711872897E-4 -9.511829588429683E-4 0.028670657638716276 -0.011839827263704545 2.2506859421928042E-4 1.6805082077281873E-4 -6.916635482958935E-4 -0.0224350383951604 0.026166591364516836 -3.6007750762219383E-4 1.5531997609385568E-4 -0.5062609814131346 7.149827066332394E-4 0.0 -0.06464501985105828 8.899800694397956E-4 4.581301403443037E-4 2.342450559675016E-4 -6.691257880834619E-4 0.0011970050086880573 -6.536314416010562E-4 0.03913276153218709 -7.367668919834176E-4 7.41345318607628E-5 -0.05301443365331506 -0.5811824821251089 -0.10538352414141712 -0.006501836410024226 ;-9.598758925031077E-4 2.685369820970589E-4 9.008080078611453E-4 6.948500570224409E-4 -1.038977695155856E-4 7.994223466033823E-4 -0.03587939276322365 0.01669729507735736 -6.672734422789985E-4 -4.1956733066723706E-4 3.3501075489759317E-4 0.030641944293189553 -0.031967903174678514 7.687148596047891E-4 -8.874125454389145E-4 0.6414274794376701 -4.882628265305072E-5 -9.235236663708649E-4 0.08750268656406823 2.404647371922309E-5 -2.282410098976466E-4 5.48940706972607E-4 0.0 -6.568462540329922E-4 -3.867907754395662E-4 -0.04834130834511863 -9.267867481731825E-4 5.5549014632442935E-5 0.06823808603401336 0.7417603657400037 0.13462453484889592 0.0060046821850975474 ;-7.122819471658698E-4 -5.025736629918723E-4 1.1955938767469757E-4 5.924022047396897E-4 8.346495513517165E-4 8.903384040670187E-4 -0.033867246588975344 0.013972221209445726 8.001526084346281E-5 -2.721944235603259E-4 2.6281853271669503E-4 0.026439624823030035 -0.030222823183186736 6.241310272810924E-5 -3.4942727019195017E-4 0.5898384108507317 8.933407160731814E-4 -0.0016794380056902114 0.0850511863768695 1.9348049483356518E-4 4.961685207856348E-4 -1.4707851355043458E-4 -5.661866280770628E-4 1.2718231554839367E-5 4.967221039516435E-4 -0.037793667004407346 -3.585299973782304E-4 1.566765622374597E-4 0.06245658567582625 0.6871031024716703 0.12320453523298998 0.007825080033597578 ;-0.8681292670497633 -0.6175950304120492 0.9340071438145128 -0.5652408709187426 0.7838177980141525 -0.8505827878585033 -0.17244568318367048 0.19149321567732636 -0.6401177571108905 -0.6864211051900457 0.5655763359616788 0.1709191108480217 -0.18386964308687004 0.7307310087212535 -0.7719369341606519 0.1163107830356842 -0.7861326483746778 -0.29033303469678384 -0.00916214036628138 -0.6741270194068996 0.727841642155483 -0.9724363027374765 -0.37397924550506856 -0.3364616450308804 -0.884986306124389 -0.010368553597660535 -0.37872483082582553 -0.5915438298583635 0.15365056279127187 0.16767306623873401 0.1348169062928286 0.21444049570765866 
-2.476232148418041 ;-1.7708238592088716 ;2.6544217404967574 ;-1.603874542723159 ;2.2293015016518263 ;-2.4251278645800385 ;-0.44497547602341975 ;0.5555369359000362 ;-1.8216204651697752 ;-1.9579800305180042 ;1.622844328765453 ;0.452438893824392 ;-0.42232686475506226 ;2.076340767342381 ;-2.200031113826691 ;-3.38491023686588 ;-2.2406640911716207 ;-0.8242898565806646 ;3.0395256996307127 ;-1.9001686706402245 ;2.076613114200062 ;-2.753838016806432 ;-1.0687323978139176 ;-0.9544915513041843 ;-2.5284485240927754 ;0.527501707596043 ;-1.0714613001724744 ;-1.674667175251476 ;0.41780880213749716 ;1.1603006216563994 ;0.2630307526865709 ;0.6108993740862847 ;-0.4355324347993845 
