5 7 16 16 8 1 
0.0 0.0 -0.0033359029174472895 0.0028561656435202756 0.16377685530563055 0.0 0.0 -0.003534459866057499 7.008206901120303E-4 -0.14914480496212656 0.007045358078144162 0.0 0.0 -0.12381351085050041 -0.007322939963882833 -0.005669673694716935 ;0.0 0.0 0.0 0.0 0.1801954766633929 0.0 0.0 0.0 0.0 -0.10345525874831901 -0.008697953101631262 0.0 0.0 -0.1198747268441282 0.009206648106304257 0.0 ;0.005034415954620952 0.0 0.0 0.0026530186962235316 0.15133803490947498 0.0 -4.2090427755686426E-4 -0.0032836199836526153 6.510117811099591E-4 -0.10811447826209453 0.006440852944211227 0.0 0.0 -0.10117392026262792 -0.006687063742847895 -0.0052675544830597075 ;-4.3923462120943244E-5 0.0 0.0 0.0 -0.0265466268761789 0.0 0.0 0.0 0.0 -0.031840709410938334 -6.528889165868976E-5 0.0 0.0 -0.02547433995887983 6.860114449697957E-5 4.601778910996226E-5 ;0.0 0.0 0.0 0.0 0.03203218066444497 0.0 -7.81335261863852E-4 0.0 0.0 -0.059586725663778435 0.014709964694103963 0.0 0.0 -0.06322701422226992 -0.015487020292400077 0.0 ;0.0 0.0 0.0 0.0 0.6395521015850523 0.0 0.0 0.0 0.0 0.355130213220958 0.02287066856887901 0.0 0.0 0.4005762728725821 -0.02414441061784127 0.0 ;0.0 0.0 0.0 0.0 2.1910518750755883 0.0 -0.0014309281437862274 0.0 0.0 1.4005378930289172 0.029777881026315917 0.0 0.0 1.5337486965113536 -0.03158058771494507 0.0 ;-0.5063537897887431 0.7359087433578673 0.6049481906395002 -0.6342887447412402 -0.23368919655521192 -0.7085916083635615 0.9600157832404521 0.5931086411846753 -0.8855764482628328 -0.05298109060832856 -0.45565048332602265 0.6328824778451807 0.5770378971381183 -0.08393050373580535 0.44696196875151806 0.49534526200203177 
-0.023305737115454687 0.0 -8.77046527670772E-5 0.007389908543744544 0.0 0.0 -0.04492305389210059 0.0 0.599783740752271 0.0011614866284400855 0.0 -0.002306008706834211 0.0 0.0 -8.97395190435869E-5 8.465808582975112E-5 ;0.03391320875043541 0.0 1.276153696349923E-4 -0.010752841215804377 0.0 0.0 0.0668431454875581 0.0 -0.8739376513210505 0.0 0.0 0.0033553844037821226 0.004414169639559127 0.0 1.305762139703542E-4 -1.2318243847211813E-4 ;0.02786860790725371 0.0 0.0 -0.008836321399280079 0.0 0.0 0.05509197874807259 -9.24886268278751E-5 -0.7180969042074047 -0.0013888145987404797 0.0 0.0027573474923842183 0.0 0.0 0.0 0.0 ;-0.029206522864034468 0.0 -1.09908047962179E-4 0.009260764389481034 0.0 0.006646221547923061 -0.057207785342310094 9.693158654596911E-5 0.7522413563389382 0.0 0.0 -0.0028898016221885585 0.0 0.0 0.0 1.0609020954252016E-4 ;0.030787225026965227 0.0 0.0 0.0 0.0 0.0 3.4490726749637486 0.0 4.229876781848397 0.0 0.0 0.0 0.0 0.0 0.0 0.0 ;-0.032654341112446916 4.328443568786836E-5 -1.2287825200847175E-4 0.010353692791878734 0.0 0.0 -0.0643379003622454 0.0 0.841496845292859 0.0 0.0 -0.003230831611682 0.0 0.0 0.0 1.1860987246982145E-4 ;0.044214858767387274 -5.861092229259671E-5 1.6638793049362016E-4 -0.014019809627490575 0.0 -0.010061649495382729 0.08552663737589224 0.0 -1.142108314583559 0.0 0.0 0.004374826575910946 0.0 0.0 0.0 -1.6060817263552072E-4 ;0.02730319684601549 0.0 1.0274674557168709E-4 0.0 0.0 -0.006213165762172265 0.05323266059513155 -9.061579483135645E-5 -0.7030909814481987 -0.001360691403795926 0.0 0.0 0.0 0.0 0.0 -9.917766674867202E-5 ;-0.040804601698591514 0.0 0.0 0.01293795729649864 0.0 0.009285225561261637 -0.08024458820002334 0.0 1.051428473441581 0.0 0.0 -0.004037245315172075 0.0 0.0 -1.5711117122263121E-4 1.4821487376735085E-4 ;0.020263045891070336 0.0 6.798011259558028E-5 -0.005715648683176094 0.0 0.0 2.072202878871155 -5.9954993529038576E-5 2.657220038608202 0.0 0.0 0.0017901212983772441 0.0 0.0 0.0 -6.561528308957584E-5 ;-0.020279504222162608 0.0 0.0 0.0 0.0 0.0 -0.0022527704094836786 0.0 0.6134706848041782 0.0 0.0 0.0 0.0 0.0 0.0 0.0 ;0.029165403698998994 0.0 1.0974938411140507E-4 0.0 0.0 -0.006636648608328741 0.05730788016567304 0.0 -0.7515875184829661 0.0 0.0 0.0 0.0 0.0 1.1229571409644792E-4 -1.059370575372203E-4 ;0.026592258275179394 0.0 0.0 -0.00843156675801515 0.0 0.0 0.05250954998873895 -8.825182089849944E-5 -0.685223474361979 -0.0013251948340924848 0.0 0.002631038581039626 0.003461257562985277 0.0 1.0238797314509E-4 -9.659033480824635E-5 ;0.02164520365201612 0.0 7.227379782044257E-5 0.0 0.0 0.0 2.293215628336233 -6.374184890074307E-5 2.956282689744304 -9.572669181114039E-4 0.0 0.0019033156146932308 0.0 0.0 0.0 0.0 ;0.019837201091962846 0.0 7.486968919007112E-5 -0.00630887949602065 0.0 0.0 -0.0010176829297374615 -6.603005310980978E-5 -0.6075613534405983 -9.915087691578046E-4 0.0 0.0 0.002589836537277382 0.0 0.0 0.0 ;0.022781089954486487 0.0 0.0 -0.007223630453696186 0.0 -0.0051842427673653045 0.04413349255849784 -7.560974001410077E-5 -0.5860645867280503 0.0 0.0 0.002254132980895506 0.0 0.0 0.0 0.0 ;-0.2522614445259046 0.7245421915502925 -0.6528413338739834 0.33570088421509925 0.8852660341685628 0.35979360398011284 -0.19271091506552418 0.6615113807497344 -0.04774080010143211 0.47112467939538605 -0.9897395250245564 -0.4217597650069138 -0.4010668473403909 0.8487516021320127 -0.651237973917766 0.655280851626322 
0.0 0.0 0.1747776772035137 0.27322679204090533 0.0 0.0 0.0 0.0 ;0.002294287237490976 -4.001402956047214E-4 -0.42399916881074573 -0.6939501885405065 0.0 0.0 0.0 0.0 ;-0.0020670160617142427 3.605016764014311E-4 0.38207427534196003 0.6253245946333205 0.0 0.0 0.0 0.0 ;0.0010500939678578655 -1.8311153058184987E-4 -0.1959265630766911 -0.3216524870507545 0.0 0.0 0.0 0.0 ;0.0028032332752920283 -4.889041646476393E-4 -0.5180566286208065 -0.8478913447680828 0.0 0.0 1.2903652971747872E-4 0.0 ;0.0011359741325253584 0.0 -0.2087612175644178 -0.343246858926143 0.0 0.0 0.0 0.0 ;0.00821477473996352 -0.001478338675594998 3.688156752460833 3.561914526511201 3.484123205199406E-4 0.0 0.0 -9.486324563311713E-5 ;0.002094509853116474 -3.652968926084708E-4 -0.3871513482348112 -0.6336281474853228 0.0 0.0 0.0 0.0 ;0.009861800388699944 -0.00177808734904823 4.7230949196372745 4.950847209763409 4.192189780985439E-4 0.0 0.0 -1.1415472546803343E-4 ;0.0014900724482108537 -2.598732027951256E-4 -0.27593534422962285 -0.45151563518196774 0.0 0.0 0.0 0.0 ;-0.0031340531132274694 5.466015378702786E-4 0.579181850433862 0.9479541114794684 -1.2781078515582318E-4 0.0 -1.442646037508248E-4 0.0 ;0.0 0.0 0.24790094373455226 0.4051413890716053 0.0 0.0 0.0 0.0 ;-0.0012687766881849223 2.2128430104242892E-4 0.23407125169153992 0.3836267695670497 0.0 0.0 0.0 0.0 ;0.00268760874327293 0.0 -0.49668842649091516 -0.8129185008003942 1.0960419982021788E-4 0.0 0.0 0.0 ;0.0 3.5965082982996867E-4 0.38109172328471635 0.623727057542551 0.0 0.0 0.0 0.0 ;0.002074831299979894 0.0 -0.3834603163606584 -0.6276202055867572 0.0 0.0 0.0 0.0 ;-0.5095491103355703 0.6287664782581832 -0.29252508203628946 0.222381245095 -0.728099265101235 -0.8867610172526581 -0.7194825039947832 0.8165434678884762 
3.3781559978725006 ;-4.1609101722244715 ;6.300331434192031 ;6.463120201243613 ;4.816169997719857 ;5.864564506014632 ;4.758138469285212 ;-5.400461939533223 ;0.38363016978751197 
