5 7 16 16 8 1 
0.0 0.0 -0.002169112821965437 0.001858853189996109 0.1198297102312743 0.0 0.0 -0.0023008928883329755 4.5565419939131547E-4 -0.11620466164575333 0.0045420374627750445 0.0 0.0 -0.08982891290481505 -0.004717833413571392 -0.003694386730609756 ;0.0 0.0 0.0 0.0 0.11855882064725541 0.0 0.0 0.0 0.0 -0.07085005428966405 -0.0023575423889691228 0.0 0.0 -0.0675529410817318 0.0025206521160501564 0.0 ;0.003685595887092118 0.0 0.0 0.0019453223102555892 0.11855643877179552 0.0 -3.081582479198076E-4 -0.002408124875292418 4.768700132947962E-4 -0.09437889289253117 0.004702643562444654 0.0 0.0 -0.07470466583496407 -0.004881840932073061 -0.0038666875385615597 ;0.0 0.0 0.0 0.0 0.049624201382101406 0.0 0.0 0.0 0.0 -0.08706441297675176 0.0 0.0 0.0 -0.06797923631521613 0.0 0.0 ;0.0 0.0 0.0 0.0 0.008603032530381334 0.0 -3.284048863774347E-4 0.0 0.0 -0.028800173419533594 0.006803994768614689 0.0 0.0 -0.02799183006312015 -0.007201684398996176 0.0 ;0.0 0.0 0.0 0.0 0.5474117564986052 0.0 0.0 0.0 0.0 0.3415524487035382 0.012436337962579152 0.0 0.0 0.38238029018806236 -0.013202103301901465 0.0 ;0.0 0.0 0.0 0.0 1.9320131281925212 0.0 -9.18878800313762E-4 0.0 0.0 1.2413551464501487 0.02044889046156486 0.0 0.0 1.3697990363530232 -0.02177460699408468 0.0 ;-0.5063537897887431 0.7359087433578673 0.6049481906395002 -0.6342887447412402 -0.23368919655521192 -0.7085916083635615 0.9600157832404521 0.5931086411846753 -0.8855764482628328 -0.05298109060832856 -0.45565048332602265 0.6328824778451807 0.5770378971381183 -0.08393050373580535 0.44696196875151806 0.49534526200203177 
-0.014126189517846253 0.0 -5.395874610762523E-5 0.00452591452089167 0.0 0.0 0.021126285891651123 0.0 0.38059138962886774 7.143525863959692E-4 0.0 -0.0014173968846834457 0.0 0.0 -5.5211016387729576E-5 5.20838729037001E-5 ;0.020543799496051396 0.0 7.846824114578556E-5 -0.006581755374704801 0.0 0.0 -0.030354088926621628 0.0 -0.5541372875659112 0.0 0.0 0.0020612219403923376 0.002711466248784569 0.0 8.028932110253612E-5 -7.574174996892606E-5 ;0.01688320144058049 0.0 0.0 -0.005409032167977915 0.0 0.0 -0.02478520023353369 -5.6874296306073656E-5 -0.4554044935684227 -8.537377026138167E-4 0.0 0.0016939627245776906 0.0 0.0 0.0 0.0 ;-0.01769753490102629 0.0 -6.759943029816894E-5 0.005670060576457567 0.0 0.004076894414131237 0.02612790278504943 5.9619121570864994E-5 0.47720934617934824 0.0 0.0 -0.0017757133167605112 0.0 0.0 0.0 6.525059181948652E-5 ;0.022900921268631066 0.0 0.0 0.0 0.0 0.0 2.895283010920004 0.0 3.639255925262696 0.0 0.0 0.0 0.0 0.0 0.0 0.0 ;-0.01978120800737264 2.661572582498841E-5 -7.555547844865924E-5 0.006337438804622996 0.0 0.0 0.02922733679557075 0.0 0.533567559014043 0.0 0.0 -0.00198470881494419 0.0 0.0 0.0 7.293019537430835E-5 ;0.026781569656349702 -3.60363570435648E-5 1.0229832682653733E-4 -0.008580580455866526 0.0 -0.006169602347857001 -0.04088830078324848 0.0 -0.7245634363687677 0.0 0.0 0.0026871948902395925 0.0 0.0 0.0 -9.874382639021601E-5 ;0.01654573661671016 0.0 6.320067788151885E-5 0.0 0.0 -0.0038116035004531704 -0.024433944460543044 -5.573965504713586E-5 -0.44610009667516837 -8.367051810511567E-4 0.0 0.0 0.0 0.0 0.0 -6.100468041739479E-5 ;-0.024719647492551972 0.0 0.0 0.007919644658924096 0.0 0.005694374477506186 0.036530769635341964 0.0 0.6667366752364955 0.0 0.0 -0.0024802136347470676 0.0 0.0 -9.661004915152658E-5 9.113807457433754E-5 ;0.016354774928513168 0.0 5.648387246582633E-5 -0.004727357357740159 0.0 0.0 1.796433249040956 -4.981685207315175E-5 2.2442743134292575 0.0 0.0 0.0014854276284868037 0.0 0.0 0.0 -5.451931045500164E-5 ;-0.012045590944225614 0.0 0.0 0.0 0.0 0.0 0.05190244250291827 0.0 0.4000323745029469 0.0 0.0 0.0 0.0 0.0 0.0 0.0 ;0.01766769432591656 0.0 6.748278959412895E-5 0.0 0.0 -0.004069873095265065 -0.026159520631986666 0.0 -0.4765587890978283 0.0 0.0 0.0 0.0 0.0 6.904892072898071E-5 -6.513800363063843E-5 ;0.016109038691504724 0.0 0.0 -0.005160940575759502 0.0 0.0 -0.023895589016395397 -5.4265437277660434E-5 -0.4344730121883944 -8.145765663802464E-4 0.0 0.0016162617909882126 0.002126136298924781 0.0 6.295709017483598E-5 -5.9391213311982947E-5 ;0.01757627903201871 0.0 6.047469384517273E-5 0.0 0.0 0.0 1.9836097648344844 -5.333663583312974E-5 2.491354401603621 -8.006661167512973E-4 0.0 0.001590501451159777 0.0 0.0 0.0 0.0 ;0.011763844298802334 0.0 4.512243008831535E-5 -0.0037841543681678426 0.0 0.0 -0.05361075545031124 -3.979559891865224E-5 -0.396975720051971 -5.973593151856132E-4 0.0 0.0 0.0015592181499588691 0.0 0.0 0.0 ;0.013810608553947664 0.0 0.0 -0.004424893102485154 0.0 -0.003181608038313135 -0.02041384107635501 -4.6526955720847224E-5 -0.37204692373567133 0.0 0.0 0.0013857683332020815 0.0 0.0 0.0 0.0 ;-0.2522614445259046 0.7245421915502925 -0.6528413338739834 0.33570088421509925 0.8852660341685628 0.35979360398011284 -0.19271091506552418 0.6615113807497344 -0.04774080010143211 0.47112467939538605 -0.9897395250245564 -0.4217597650069138 -0.4010668473403909 0.8487516021320127 -0.651237973917766 0.655280851626322 
0.0 0.0 0.08220284034180246 0.24888560922977104 0.0 0.0 0.0 0.0 ;7.498196116353474E-4 -1.2346477982430628E-4 -0.15767728701994807 -0.642695212017694 0.0 0.0 0.0 0.0 ;-6.754859277714447E-4 1.112233372513955E-4 0.14215966150631185 0.5791383207691226 0.0 0.0 0.0 0.0 ;3.411393309147992E-4 -5.6107050794155994E-5 -0.07398883230384969 -0.2979517950714329 0.0 0.0 0.0 0.0 ;9.161532734139142E-4 -1.5085316446375975E-4 -0.1926551732308588 -0.785266195756552 0.0 0.0 3.9137040774347774E-5 0.0 ;3.7134875947859234E-4 0.0 -0.07758061203786235 -0.31794378977979754 0.0 0.0 0.0 0.0 ;0.005443256666924923 -9.801825637263334E-4 2.7971514089046194 3.044817993620256 2.3102718784271688E-4 0.0 0.0 -6.290308496646194E-5 ;6.844778172057482E-4 -1.1270413525853182E-4 -0.14404831665756035 -0.5868283918104137 0.0 0.0 0.0 0.0 ;0.006746504252781236 -0.0012176683991151314 3.9373980137318276 4.033711661646844 2.871269638572706E-4 0.0 0.0 -7.818662311579604E-5 ;4.86586433348098E-4 -8.010886754768023E-5 -0.10282479146330627 -0.41816986495249703 0.0 0.0 0.0 0.0 ;-0.0010242718806330346 1.6865589956249E-4 0.2153911166671171 0.8779383389941308 -3.896196651766994E-5 0.0 -4.375574646694014E-5 0.0 ;0.0 0.0 0.09298638541667224 0.37522225577899665 0.0 0.0 0.0 0.0 ;-4.147005183488835E-4 6.828462931645736E-5 0.08699938239177972 0.3553095499270306 0.0 0.0 0.0 0.0 ;8.783648401679118E-4 0.0 -0.184708754913753 -0.7528764416839709 3.341185298552679E-5 0.0 0.0 0.0 ;0.0 1.109717568914679E-4 0.14173976553389278 0.5776592280949049 0.0 0.0 0.0 0.0 ;6.780724211407334E-4 0.0 -0.14262047861236504 -0.58126480550794 0.0 0.0 0.0 0.0 ;-0.5095491103355703 0.6287664782581832 -0.29252508203628946 0.222381245095 -0.728099265101235 -0.8867610172526581 -0.7194825039947832 0.8165434678884762 
2.7723637907052594 ;-3.414394372368645 ;4.246057601421832 ;4.56663654622797 ;3.9522553834660017 ;4.8127573989228205 ;3.9048024993759145 ;-4.43184637056901 ;0.38363016978751197 
