4 7 32 32 1 
-0.31982360387890035 -0.26742139479210586 0.19481051945781486 0.23300811738519867 0.6176066886677712 0.16036049827545676 0.27380491338888624 0.9123322968761672 0.2820296276641041 0.2109931037406624 0.7741578402597867 0.4653565797235533 -0.9287755757616989 0.8548727624754444 0.4227801381872555 0.6724267242923985 -0.6102896675492345 0.1983499580966608 0.37675347871880277 -0.4424106688504545 0.5469733511875057 0.6351599843756736 0.7262141774734931 0.2815472534034685 -0.2758567927976692 0.07218436470583842 -0.12330738951852936 -0.2967297919871154 -0.36837039089188234 0.6007138127726134 -0.1562854222269121 -0.23804225414762084 ;0.5812680431711421 0.5144613126024643 -0.5074257754546344 0.35375024821724915 0.7258757276863638 -0.8859391098888297 -0.4795179789997505 -0.6394477642990396 -0.6524970470306249 0.12650985128752693 -0.4052912504091523 0.5708436670337386 -0.5105429788686086 0.4602065107652167 -0.5197998822700297 0.269836492055721 0.08705149989555326 -0.11274253020075217 -0.7516544065929694 -0.17922105499201316 -0.35558426526876113 0.37215877782503465 -0.9171409483155097 -0.8036723597531972 -0.6826298653602322 -0.13765909639755644 -0.26037898598279047 0.5657288561834597 -0.34478807406138695 -0.21899610272231654 0.05197872279804273 -0.18633483833679365 ;-0.2333284111264155 -0.14494741276585885 0.0438709830019589 -0.7794770987703065 0.8994476432669433 -0.10064326537824943 0.10606128754980912 0.6132665648810471 -0.37884052179468347 0.4050373195040288 -0.4804307851882067 0.6815639528175914 0.3195825423026801 2.2227318017944403E-4 -0.3863794978625651 -0.21439674556455698 -0.12319367642331024 -0.5375835723416397 0.16587256258646996 0.1472749290442815 0.8622501687584586 -0.8273386778030557 0.6015434496016087 -0.27473596827493535 -8.478768800597725E-4 -0.3860977516425155 -0.10599749034678574 -0.1599656347219309 0.31410437018873427 -0.38144706272547085 0.8824083127880639 0.6107723162033678 ;-1.2258311784422198 -0.5692239635461165 0.8835588450070697 0.639279626455718 -0.09841910166384836 0.4143316581028515 0.5329238824708117 -0.24057504229299886 -0.02137416642414971 0.32234365463562753 -0.1686846246632827 0.42329892294277927 0.6934397652296492 0.9071582101825925 0.2033727759918832 0.3963296970366102 -0.8107173349757659 0.4519417240394807 0.9116438777044266 -0.4803469437431135 0.8864985038854042 -0.5576671957394579 -0.591128964069221 0.6309990146746243 0.25623239045748586 -0.4004582182075429 0.14397934000659635 1.0291155251904038 -0.5682260175857377 0.025268011174154205 0.5523344959451447 -0.019148390458671213 ;0.3260335662068628 -0.9228781704355786 -0.5214773556588728 0.36767264075613926 0.21594034278474925 0.9384834656848314 0.45484597665978377 -0.2205524201524962 -0.20583437553168454 8.969765655592405E-4 -0.6333108363025541 -0.6139148874610739 0.9178347703131566 0.060147644892331174 1.0515618365163246 0.4375939979038067 -0.0524899556196646 -0.5447891303510928 -0.059923335990647995 -0.7053226921545909 0.8218812695631225 -0.18284989795595197 0.6813604052726963 -0.36257745176036876 -0.738041242878167 0.6506078311250811 -0.31317249792867036 -0.23702586777588242 -0.9031950446401039 -0.8153992394699252 0.0752678830101591 -0.7319338481561931 ;0.06423125558924137 -0.4089264615138939 -0.9191297137711839 0.6572791289960185 0.9367303126993196 0.6098349564360594 0.2446649521745131 -0.6929639065361476 0.7001789605392115 1.2624064028776463 0.9552602681087274 0.9002537572781099 -0.14382336167154453 -0.23819361412464768 1.297012919471062 -0.3521659797700718 -1.1307815413364435 0.8601857476033989 -0.9533203235462402 0.2362575822637332 -0.17507822443069945 0.3332499436420474 -0.10908521993250694 -0.6164139642392747 0.5197838332303684 0.2088404338311293 -0.03403873923769693 0.31250374534972397 -0.6411799189068279 0.5032441556659288 -0.07845753588907109 0.6085026281813484 ;-0.34040567400032606 -0.7087775424627936 0.11509420921406618 -0.1523884539030979 0.8619684238280694 -0.8960221592219506 -2.098149203779658 -0.8933437049423896 2.1529678042524836 2.5111494877151994 -0.5465267848274962 1.0793582848244485 -0.29955282521688015 -0.1799396758529065 0.9596420750541104 -0.4698938110590478 -0.9419548739006814 -0.31551977272628834 0.35851461758706915 1.8174210929836123 -0.757003136993288 0.49680836567134834 0.016988715713352576 -0.8080915135749664 -0.8297992703813049 1.273299843381992 -1.416369184014169 1.094759505709445 0.9657771612879877 -0.3107311324082878 -0.4478518718809567 0.29304762482760743 ;0.097425669169382 0.6022218737497642 -0.28193108902924635 -0.9628747425566921 0.7789173599462524 -0.6698014271558337 -0.014325436953271486 -0.4171804513802231 -0.1601482726796597 -0.36503444818954156 -0.8279214813783566 -0.9208453478949441 -0.9413879099148261 0.46102974427049626 -0.513002098904509 0.7682802785448624 0.7589427102334529 -0.28473781824421307 0.6086997188180461 -0.03494979663762221 -0.032776145754513486 0.6927172633763614 0.4485322908215257 0.7739077994361678 -0.38889999733501646 0.13837157733881988 0.017652141169565816 -0.49899458065727753 0.5799148044617055 0.3545082217931479 -0.7602430378303964 -0.6679829529708561 
0.38900221583547423 0.16478291156788724 -0.191886902996973 0.4188540899574967 -0.5658539786085337 0.534816524322355 -0.6726438217477642 0.7177559207559147 0.729042906847295 0.6788256914749512 0.4849007817699715 0.8530116729708391 0.10552962803957024 0.3186264885687242 1.1114794703940944 0.024820365129712935 -0.2138323488157504 -0.3810548331456553 1.073882835621425 0.03620883154658008 -0.24164250559737457 -0.8760494931599359 0.11816201152261531 -0.22639621572026952 0.028502330856473905 -0.2648474212777437 -0.08014570559429932 1.046228523277939 -0.8392726796672139 -0.1595203305318234 0.6557995922169759 0.8328027329133969 ;-0.14747734607013951 -0.170367951398787 -0.7973513893729838 0.5413249214142265 -0.6676829182335353 0.34233607685383177 1.7408418955816278 -0.6396018714214063 0.9757184898910279 -0.25339532010043675 0.3579771122340625 -0.5948056753933072 -0.7563166566717148 -0.7521066655034844 -0.6474707889932437 -0.1753687695481747 -0.25544687995161613 0.6306197283209436 1.8674983525457876 2.05335662994793 -0.4568340330632057 0.4857275832233709 -0.05970259691155892 0.11466913980274372 -0.314295621881237 0.9974684874332079 0.7628637367501697 0.6148285015285349 -0.6295295764454962 -0.5073861194194962 0.521236749356133 -0.14024328151507665 ;0.8573340595092522 -0.14573915536470858 -0.9303044401806229 0.0121657316963261 0.05601991880254379 -0.8916237880085673 0.017688209709382296 0.6509005306735102 0.6080424552432675 -0.5408547085184311 -0.3538358028360661 -0.4171416250530867 0.48791414168729325 -0.31054017533361533 0.8416173886801871 -0.8468145655688115 0.5011326816486545 0.16882126680237533 0.48431709974700415 0.5972803490824137 0.4068924755807089 -0.18341758539765127 -0.1539846931643922 -0.860197283994008 -0.2575522016176576 -0.26429689243715787 -0.35808529415198204 -0.3387598918682285 -0.8986518298816248 -0.3659174795132095 -0.9826874457373999 -0.21152851970264414 ;0.3759203289725287 -0.9188343831948271 0.7243320101779788 0.03909899285456063 -0.017409442056031392 -0.0641653837200396 -0.4311038608599011 -0.029274413800697032 0.9009647279471061 0.6264998070866873 0.03788990426119176 0.9710287993316814 0.2597704746309304 -0.5578019716839105 0.9904814358343526 -0.07217154347579892 0.3740216647989871 -1.1253072778049598 -1.6745011918023167 -1.6392649344294932 0.04486463045496293 -0.4831786737112888 0.19401946695386402 -2.0338106816538284 -0.685012156788739 0.2760856561468126 -0.39837181922251097 0.4341679602367813 -0.2833012339194455 -0.9089738994520942 0.9196626571442936 -0.16974877096736363 ;0.3458347258027994 0.7387912604058127 0.5208893523051737 -0.5282960580190758 0.8016818276346127 0.09148558060397718 -1.958263709998537 -0.35647129493867374 0.824620594484579 0.4742115167495675 0.4205695648025933 0.22324439676443458 0.7361764369506435 -0.4645586964582304 -1.4912482434816208 0.5303836306195197 0.27570548394372396 0.4406531780170403 -1.85013344179841 -2.044555548654808 -0.6560007785477647 0.2339428252145341 -0.5504381543445866 0.9150690488986551 -0.8825472601171594 -0.46852354192637996 -0.9869019959066622 -3.7505361730810067 0.06959965093963937 -0.75194512391912 0.5865260033494034 -0.5597120885185569 ;-0.04478706295831284 -0.8029965140689258 0.6221464639090517 -0.05369750985923244 -0.29483426358189596 -0.20548108632753848 -0.6919608773876808 -0.5294972378480476 0.30716740649733665 0.8600711806418952 0.25286597965079066 0.7232866122458134 -0.6601790204367848 -0.7626075977986329 -0.30778334159497983 0.594926574446474 0.7804173292989844 0.25261469855350954 -0.6178878608554688 0.07090171090309844 -0.2490884847980729 0.49219361928712635 0.04415169724166762 -0.5197136203573888 -0.2530356051758661 0.7393228765214306 -0.2543988312319509 2.6428897008043597 0.8319379035180038 -0.3764254473177388 0.22331396312531585 -0.24790075052552826 ;0.3489727372883658 0.6737610512970604 -0.2385038392141326 -0.5640724366542178 -0.2444460721289227 -0.13361214852326816 2.190480905355975 0.892298268555708 0.024904473646459445 -0.5377122368305479 -0.1426513841736407 -0.22078073758346356 -0.8563322269428231 -0.9664653467285508 0.7178436558034605 0.5642897175940218 -0.5446043913717953 0.13125219459523763 1.8000560742614127 2.4824233498399564 0.29190372494956623 -0.09997540915037945 0.01004653897006057 0.2194505449375658 -0.8336016714107832 0.14384300608915013 0.02033371992641215 0.9640192612830093 0.8218469702886335 0.5833490559073934 -0.28279823217786115 0.07865685400783946 ;0.19287305687957315 0.14995841565401932 -0.6404437808353337 0.39714510333568165 -0.010739825213828524 0.49282994620335435 2.339685368045025 -0.9551131567944621 -0.6179871335086656 -0.7606402284989711 -0.7526823020671207 -0.06960159780805587 0.5638024256858385 0.021812014650001176 1.3091011521584717 -0.171627921446813 0.7378965790803466 -0.16557477338522017 1.7323159366114966 1.0875151119784137 0.20802148020882985 -0.15974124053189542 0.725956249302495 -0.11282885289361577 -0.36613351306721065 0.8439603363312118 -0.34285208697469344 3.0888821151306867 -0.8570898475730471 0.4580147840222449 -0.545700426520638 -0.5044534502816632 ;-0.5889934691809298 0.7210115987707434 0.4985435794431768 0.03536859781614054 0.8388073079105144 0.6933125343491543 -1.675014440740134 0.19443541318407584 0.23646852734013307 -0.4132939219268849 -0.4573770133444887 -0.7518876553412415 -0.45118121952706414 0.7421835953991706 -0.5225857755113277 0.476120522642997 -0.2176575639561836 -0.9531732190054248 -1.1985037017152644 -3.1011128957441794 0.9177938260986085 0.5361205575497754 -0.39002620154697104 -0.6362781561128452 0.5968711073481952 0.030666279022814838 -0.4974600073522571 -2.350047250179179 -0.4255896006170463 0.7003500434042107 0.7760589071486416 0.6462606937613762 ;-0.10830961981677188 0.2323967252802744 0.6783088229267267 0.5729089406169465 -0.5532474708587476 0.9516200261819134 -3.5116581827284445 -0.5068220985794936 0.5079967155649334 0.029379314922374392 -0.7478321795066796 0.6927376213634315 0.8893117204302188 -0.3374127852386535 -1.2846776265109456 -0.6261654093765139 -0.6074479282513379 -0.221541203231261 -2.003194517123817 -3.7956601527475646 -0.7943498601381025 -0.5531759070356147 0.2989898222742535 -0.6452487461612401 -0.07622415332040944 -0.011062787146019087 0.2661748717275829 -0.9217864874074964 0.14644896283628478 0.9365748014341766 -0.5557043336580456 0.8170727797159769 ;0.19416286844508138 0.6767601542967593 -0.7840118086632079 -0.6497362559567869 -0.19779333540821498 -0.027404641577139118 0.4938902852739676 -0.26374009690126404 0.5900155282797402 -0.4012794765514106 0.16983688211462375 0.8411331195229086 -0.28768336501936786 0.5667094819711233 0.4697749030379979 0.648990128064942 0.35721930135007945 -0.32440985593939126 1.0609237964778553 -2.6584670039691254 0.9186843079704589 -0.4776911655368512 0.6858637162255329 -1.4249033406192324 -0.11758018302952344 0.5654009750934902 0.7541600817843088 2.33316476391043 -0.6802472160697131 0.23054103558139688 -0.5632524052165759 0.30291643475123203 ;0.1264466073818111 0.7059090284006402 0.8148990508464291 0.4628219518783173 -0.17034587629935263 -0.007326204388232183 -1.8627114940162277 -0.7781325464763412 0.6470228112088348 -0.6158299710073947 -0.18678798733167606 0.26904855372201303 -0.4176924963337712 0.291188749879443 0.8460882762741416 0.18547479570052977 0.21635973241888432 -0.8725374416116954 -1.7010027207500473 -4.266335094786122 0.4204485696333127 0.8127587509950684 0.09538995248142693 -0.998029090553729 -0.7471319234698802 0.15907520931810762 -0.5926405133412704 -0.3400284773680663 0.2441459968854884 0.27613658493325116 -0.9108557119635275 -0.36736724996724124 ;0.9003545822343944 0.9930687205223379 -0.1667694247911697 -0.8097708549630981 -0.2968624498556529 -0.5152610755101139 -0.9679566646098356 -0.9489989786603439 0.03696202258636834 0.32786161957120147 0.2027992992600179 -0.05706034149567147 -0.37195829162813604 -0.7231676941422475 -0.3268043386654103 0.4612695295309613 0.8777524860885083 -0.8997244940635399 -0.625644034713064 -1.8424731140130455 -0.4078145800148526 0.32353432727162235 0.655865034690832 -1.7387160545657283 -0.04571614759160727 0.16028218205565095 0.8084373976675541 1.2871431674166658 -0.5126889202847105 0.32029648809425265 0.5245683859930679 -0.9104342415522415 ;-0.08689290827973035 0.5719281658393153 -0.6907214309483304 -0.25696656562047093 0.8869724592642582 -0.21023566355327858 0.3289285845600511 -0.23229990300764863 0.4302981268598652 -0.17041378032337445 -0.7737813727674285 -0.3779494501131977 -0.14238193235294538 0.06889770873368986 -1.0341263609809386 0.7368022007907923 0.27491850308645355 0.06805822743559199 -1.0460906831423245 1.5247733571379216 -0.9268929293855329 0.08967102422617404 0.286533239111827 0.25525148779000684 0.7477198850920969 0.9189254378136851 0.8936811114729112 -0.9246215786352956 0.4814045256803968 0.5238731941157727 0.7395798080256848 -0.8127316525623662 ;0.024024920430367247 -0.30405143722156885 0.14318665828650895 -0.029965707745312497 -0.6778590559634178 0.4201654218413493 -1.4573487155067515 -0.26264594321229773 0.5955627838133007 0.5440415700588208 0.9411910343826592 0.38065386836062126 0.48780554604979465 -0.6588458618582236 -0.7646156027626488 -0.6995281880913041 -0.1699416310287772 0.45700011077916003 -1.317810983930401 -1.7340427583679054 -0.6143046840428829 0.004039428242212002 -0.6206913775980056 -1.659678057563254 -0.8130210970958436 -0.7809259445589207 -0.08645469791260875 0.14911542003979153 0.33005394033651314 -0.26312842131736935 -0.18828193398691487 -0.46121141327555787 ;0.6313675165277689 -0.5369740845325555 -0.058832306706406295 0.7278263220470902 0.4879355485305789 -0.48779207560694887 1.939108135462024 0.34616594918034344 -0.45197251823502277 -0.8949993442598446 0.8347307356358415 0.7763617581917774 -0.6141664353499104 0.211795669828109 0.4822982618632255 0.28502985597357217 -0.7284123938801873 -0.3179526964126938 -0.038315681624127004 3.9618261763327034 0.08660693732293509 -0.13647027563820974 0.1921562686330526 1.0181370698963452 -0.9157021202975135 0.3895621820391287 0.41952632072722573 -0.12810203742574733 -0.7119296167869671 -0.403120595748165 0.7815363326388164 -0.8822052766946021 ;-0.6841865550299486 0.2727367231308587 0.7751035452392743 -0.5676040868354744 -0.2389985040307609 -0.37522800624193103 2.657882502388727 0.9268530772276763 -0.8159846687826372 -0.07985730393549903 0.006919843493157184 -0.973080070271511 0.9890544856482668 0.7116931826744395 0.5116131043191237 -0.7714831890286858 0.926155668865567 0.6429080918088413 1.8495330989740433 3.0028999662177283 -0.053781757665504096 -0.9320650456880453 -0.7126828874049012 0.16185648311872924 0.8035358126878837 0.5255378735755555 0.31246845071415136 0.38973289162265545 -0.2225247069203131 -0.9341634036439671 0.7038924926463941 0.5141560699467455 ;-0.97857764143891 -0.9103613704401784 0.06846675219900188 0.754179451640979 0.3000955991059934 -0.06167773921126273 0.10708507088958943 -0.5424407945605577 -0.659292346762435 -0.32977534755207455 -0.46587663702568743 0.41385775730509355 0.294912395000753 -0.593429060566741 -0.04211330015211025 -0.4964487305883438 0.48782299752296177 0.44980045955251224 0.1345299161663321 -0.3626416615751462 0.9907980518154619 -0.9117453776206047 -0.19027861364721296 0.15812620072680028 -0.47155076688404307 -0.011341612992869442 0.24365687705471076 2.005748015781562 0.10550955768694922 -0.13352338149945997 0.26399277957444817 0.44051104297412125 ;0.5699207744656685 -0.9070280129186832 0.23274901214550006 0.6357416288297184 -0.28363632614346307 0.6603481978788535 1.0680580778970588 0.2209461673070787 -0.5023772671522819 0.5991664865297391 0.6517997055565744 0.09651582841200543 0.5221897158361691 -0.8780438988228808 -0.29984684741754103 -0.3186710232584081 0.4936078049479692 1.083067810264552 -0.6469522983261013 1.879062009594973 -0.3453069872418354 -0.28573162087946397 0.3903757875229478 0.04352661153509443 -0.6534199985211407 0.9944808417922755 -0.6045328587473668 -1.0663332269744035 -0.937189935042527 0.5715169149506584 0.2421116677433086 -0.2751738011570861 ;-0.690538777419324 -0.7896967771140377 0.3376983048101408 0.18240906784693303 -0.9175538172314879 0.8810616618403795 -1.255663644585824 0.11947865139311462 0.8192806551130396 -0.5161650760393228 -0.1137389130387558 -0.12155390671765838 -0.5798433958132907 -0.39168202995510715 0.04032638116237802 0.28617295525121966 0.6184425215960779 -0.3035582302310548 -0.7532232477407573 -3.3983115761801153 -0.46979788584961607 -0.8448461045363836 -0.42788459804455625 -0.6248076314703765 -0.39291890739016555 0.1206504306180227 0.5654094690553824 -2.5029922201030046 0.1895125092205854 0.25363609787466385 0.9029952380754336 0.7084434090441506 ;-0.3110978345440491 -0.7586385166749084 0.9991690720097377 0.06389855015909642 0.5569335933414475 -0.7947670752153306 0.9928342823529989 -0.18053977096889365 0.9856641775795222 0.39403092060884887 0.3823140226711202 -0.8402461927109627 0.8851716992466868 0.928326943363839 0.5436155243361975 0.14684778437251578 0.052690091736343356 -0.9343054701080152 -0.3064039726106044 0.20441349103517856 -0.05982163006683863 -0.10637986225793669 -0.024747576116077207 0.664274674222756 0.8206162596041783 -0.7693865115008917 0.6596950598636844 -0.7314566278933758 0.36089037572201593 -0.36867007773403954 0.9310990983094487 0.8982892695592776 ;0.12982300422478407 0.15499267535550182 -0.17322172230808672 0.21255064912043825 -0.41517895483347816 -0.1184973986325173 -0.31061589408636625 0.6274694338968791 0.173474643632416 -0.011368341837536305 -0.4438123028761207 -0.6871598037071143 -0.45070571513696706 0.34948129916187803 0.35464996561195394 -0.46683185645746955 -0.06410588210948265 0.6245556643417869 -1.303821918456857 1.1474913503199997 -0.5569508795564497 0.7936776496753783 -0.6241297257346557 0.12827832019466404 0.2488567278108853 -0.6544061245775844 -0.05543057176572045 -0.5386429207176038 -0.135773558866461 0.459159740181708 -0.7527230875664367 0.2574389696372535 ;0.8637033428221051 0.45162834755172515 -0.9385429695546739 -0.1815502839089233 0.16248429323248625 -0.6418701770480034 -0.23828630204919055 0.06333651511742358 0.7939580965573857 0.09913300753438448 -0.9804405769364897 0.26466850916328594 0.7695790614960172 0.7640849620246533 -0.9702337199662743 -0.23138022064110644 -0.5155855439859809 0.9897903500683624 -0.41192095391221584 0.356497146791067 -0.20870041561673336 0.06882986347428718 0.25165503197517297 1.080694290600661 0.32562784609047785 -0.5559353030634374 -0.8033564789860813 -0.33534550185411105 -0.9974539035942027 0.7444646623797658 0.47576813468535595 -0.9582598223175359 ;0.9101272830734135 -0.24714959794230182 0.861054958014407 -0.8450825029316823 0.13390181354505185 0.6677961336080652 1.4593031816869015 0.5402882942950601 -0.41002963371577844 -0.7110870414457328 0.5577939685105745 -0.750917402649334 -0.31103131745405316 0.6320420649679046 -1.1417285760900235 0.6912347968422298 0.666469306693398 0.6614313701753195 1.5993096441088452 2.764974706495669 0.2754590165801142 -0.23888040385491488 0.22247093338395918 1.481542347226168 0.28334508221858273 0.16218831634383787 -0.48861180237165514 -0.29848630048211733 -0.1124361020951236 -0.01860838228183803 0.8889048618216234 -0.13347969292108197 ;-0.6708540805602146 0.8109178831452715 0.2709205818399245 -0.5079278613590003 0.9433912930112104 0.435070909227501 0.39684798378770264 -0.8907647826131784 -0.08901641120127216 0.08672928217182908 -0.732028264216195 -0.6940102252586118 0.6518637782768895 0.21338761518914265 -0.2504045442791249 0.5894697680739209 0.3900127292646445 0.24230318619952332 1.3061684244941631 -0.427332642321392 -0.09930897576993027 -0.07979835404780615 -0.2660568274024013 -1.1175760933973542 -0.008227376470967872 0.8951030562323502 0.16355678156726375 2.7065276341487072 -0.6143440782793141 0.9400451770054309 0.4223331451579817 0.560583338767148 ;0.5165693282907318 -0.7521227511393669 0.0014200228156211548 0.5059435627756895 0.8236826758282753 -0.4314671794083304 -1.5701381863384734 0.9595348366345107 -0.639559230827556 0.04462678600680153 -0.8317296905300843 -0.6819284652161001 0.8959432096646531 0.22562590940256955 0.395654702083545 0.9233271707885371 0.1835703018153498 0.7518406591402469 -1.5600312608650873 -0.8543583939191177 0.21622348495821905 -0.982552279492934 -0.4220707744294273 0.1435156150460241 -0.10721728717444604 -0.9293208361688067 -0.37651631781268846 -2.1320577954171402 -0.20976014987903124 -0.42639593743624976 0.952958748999591 -0.802493513074093 ;0.7692013843043115 0.7115590475853413 0.7154146711505033 0.806621165218974 -0.707702905322444 -0.5011712326879957 2.50933872152552 -0.6535625345008401 0.3929515395258022 0.7602745120437928 -0.5726813840852396 0.7128139886611621 -0.8283796047341516 0.27104602874651473 0.2166701289769911 -0.9598899683819505 0.58436982270416 0.8234215900605029 1.7818495531374487 2.4498010105572527 -0.015665105660793235 -0.18982663757858725 -0.9989692833041447 0.44806580040088745 -0.3787549109550695 0.9561454716582216 0.8831447868828004 1.7889304134759956 -0.32484310428338614 0.2802911826554845 -0.5558896262153475 -0.36288074761177447 ;0.7298939646713892 0.6974522944236426 0.44718107035211313 -0.35454849236817987 0.9680130443478665 0.8838767766882061 -0.7992921459599022 -0.02831369673744685 -0.20076348501426153 0.5511450140986403 -0.7633012478730865 -0.22699962067708832 -0.8576952476848556 -0.7231279585085896 -1.0656990951587166 0.36286327624247583 0.07212109469730191 -0.5906850373378802 -2.0946449234975564 -3.0644788564601333 0.8427381868747941 -0.2246973877308144 0.5456696897776381 0.3707669471519199 -0.46942584225213235 0.9869811960828782 -0.5346854576135098 -1.4168585929344224 -0.773242978379986 -0.044895210591278545 0.9476518996247077 0.9987890413925373 ;0.7554420282616328 -0.8046912927482869 -0.6213776589961056 0.7477607133643778 -0.6782965589149779 0.2538793421336776 0.7036421897022251 0.6116031265523867 0.8979182578006197 0.8677440996706515 0.7283276472651214 0.3208404621548183 -0.34945702714588167 -0.17537812587785181 0.5948586923944467 -0.9192900266461594 0.895875431190304 -0.5737975720486388 -0.9397596896471071 -1.025341065202463 0.22170153197445408 -0.28881433210482826 0.8149140280432011 0.23038065344392292 0.40170634972750335 0.8784299322720885 -0.598984912655744 -2.0262829654255463 0.9303336703501761 0.0461974571555744 0.12115515815404203 0.7618369281651332 ;-0.7804984794878823 0.2159915964549572 -0.7710565545913813 0.6756229220305416 0.8657653395564489 0.4637496390152263 1.190287488542366 0.4101547410286666 -0.18161492060037474 0.953242965582748 -0.5233821865443653 -0.5154112285490893 0.9182686642525508 -0.8040230820092522 -0.5151304177998404 0.6563045592869653 -0.6189994527314637 -0.7857076538342521 1.1065123842554978 0.6013205543771445 0.27158384797722235 -0.17954430360790066 0.15568641895467414 0.9283702961045674 -0.31838347350560137 -0.4057561182908184 -0.7086063664902246 -0.1725510823126256 0.05292688973332726 0.034836968718937315 0.8127135101351806 0.32372803472054207 ;0.5444925267675547 0.47304219340862746 0.7826755280809988 0.09230580728256209 0.12994491854086 -0.9674460872512542 0.040998060109478825 0.01693156995135117 0.323639022663686 0.8000340365012146 0.6002390400185885 -0.6260329430804095 0.0 0.49073417784300843 1.2313859579146966 -0.3086256470080029 0.8720698661726815 0.4698213634220942 -0.3149786247775085 -0.7280174781005728 0.9570939765042198 0.5737087385407361 0.5697933710599993 -0.09099848438839538 -0.0918883340924862 -0.8171275090295762 0.8261566105722251 0.3778524896309005 -0.23437578920261487 0.15699010980838354 0.6835925300620159 -0.2826101287552328 ;-0.11233057454243534 -0.24115271858325893 0.18993785466563357 -0.727852422217285 0.8898988348596054 0.9925938641058503 -1.334829156148264 0.46802858131846736 0.20655341201379984 -0.8459589667022952 -0.6229099067345752 -0.9361154307611762 -0.8601619606654511 0.534545578402067 -0.4419726670675684 0.7517832292035648 -0.8382530735236023 0.3892375181556986 0.8576393308335079 -2.8121644864953703 0.09140089151569537 0.9040280693430575 0.9813408747179007 -1.3986283064111793 0.827117629096902 -0.8640462955352053 0.19520749595596587 0.30159667236808113 -0.6634019714894902 -0.16697127976592555 -0.4401938237483031 0.10608166589608753 ;-0.9536934045412604 -0.6325436560256512 -0.8154699192704098 -0.49833001256588116 0.349157957727261 0.6035545193964948 -0.14835925628111157 0.5854399849060552 -0.9257822953695509 -0.6036305825917976 0.9086970631319529 -0.6804602163112525 -0.27995931224452253 -0.5071048652596131 0.1079072630014255 -0.9586353374738952 -0.8748351324130941 -0.27756961918545153 -0.061145607634607524 -0.08704049015584014 -0.41882173156851876 -0.8704954156681994 -0.8977648654491477 -0.1744538702310705 0.37190382021085977 0.3555877830635308 -0.8852632189387797 0.23639366995119215 0.36256365710892235 0.5427572064053132 0.33467252569124706 0.9067505552094177 
-5.023615096392013 ;-2.087668483497357 ;5.593045158595881 ;2.5205464568346625 ;2.338211948199541 ;7.158384066394277 ;-1.1453089828594756 ;-0.8083951139015798 ;3.663368775050002 ;-0.9674630705135053 ;-4.317748240478193 ;-0.4054719530988963 ;4.187713389899455 ;2.5805660925444656 ;-0.2774061851039961 ;4.011846863644731 ;-0.07515884114073282 ;-4.938615669416406 ;-7.268473303467995 ;-15.620867835178531 ;0.15894282702785606 ;-1.6566747071691657 ;-1.194850149413438 ;-0.25662438294105433 ;1.6965319284851512 ;-6.502031678553141 ;-0.5682146819502653 ;-7.074921380156082 ;0.5470286469246063 ;2.676756303584395 ;4.449572516556789 ;3.2917800631415455 ;0.1924291829065301 
