9 7 16 15 14 13 12 11 10 1 
-0.7749369703850019 -0.14040689305530207 -0.27786200881191264 0.14113992144240142 0.7419224610812394 -0.4240220550181219 0.16216986713216122 0.15258889325417752 0.5379423622039368 -0.8008103437752027 0.7905683416032746 0.030827559086388838 -0.6860896685161407 0.27475140276215576 -0.35902463076700203 -0.5363766446402652 ;0.2730872098383212 -0.742728496355536 0.9171618367571688 0.3377835796736677 -0.5901117884115338 0.7020057131982511 0.9554314300898934 -0.9620611989062083 0.24391982426144165 0.17633059859976913 0.5745282454574552 0.40676964499966817 -0.7119606194720507 0.6734676119226983 0.0942665231982187 -0.9034759593978566 ;-0.2737342755758862 -0.9796409269926389 0.2248330283117624 -0.463195895421923 0.7918164378808048 -0.8632744895360451 -0.08720218859913256 -0.3288864546229035 -0.01756146620577228 -0.6159375329096033 -0.9528489410612838 -0.5258497044968725 0.8466828500767045 0.40992155884212095 0.688271217769536 -0.26210515694948305 ;-0.029980300990781975 -0.3900759061102307 -0.7238272308104156 -0.44722968087349724 -0.289067412415647 0.20552327888950492 0.19509428797525993 -0.525408335515944 0.028743839774920753 -0.9799784474402887 -0.07760604731509552 -0.22925144788094756 -0.8400397992782209 0.04142990109300515 -0.9208758777853167 -0.028291912588166136 ;-0.6540425028309749 0.6287934304049759 -0.5982065945833122 0.8616935674503599 -0.2611118167842535 -0.8756875347350194 -0.594753579445907 0.2562883716557568 0.6772741033957105 -0.8129294257822641 0.7142661932497318 -0.23509561384338568 0.40822746433434454 0.5843339216074821 -0.723624969623405 0.4828736373329495 ;-0.34844614982320027 -0.13611058047961827 -0.6440351456983272 -0.12223473845582572 -0.17212257993064042 0.8531376490087299 0.953970752412719 -0.5433130637643269 0.012787131081905516 -0.856800365350201 0.9151313958483351 -0.5379935112718144 0.3964465359876526 0.8440551432529596 0.6744684274152692 -0.41145318058027697 ;0.8035475622077838 -0.4326657612413337 0.8675168165774838 0.7679982478647396 -0.36757912475897514 0.9561156588600072 -0.28259494778980443 0.19739130852715422 0.4191945742955988 0.896274697813273 -0.887301000450119 0.0715275826217822 0.6658009879415212 0.2377581668008744 0.12185089238361314 0.2729876527059901 ;-0.13676281252062372 -0.7557177097867662 0.7381630948308653 -0.980125278825237 0.6465374748276831 -0.05412257965551359 -0.9232468327024999 0.40040841340776745 -0.7062834340934141 -0.41143439619211186 0.34163523855272837 -0.7755401832129682 -0.7122585500539527 0.8787625950354732 -0.1951989918771655 0.18812704457080986 
0.5809503789601737 0.9538155133749326 -0.4400501182912338 -0.4856397600421772 0.867354695464431 0.27200849967174734 -0.14561832868271973 0.5280498303991994 0.6615755013169221 0.28581547799764107 -0.9915399807069003 0.49261435254202524 -0.9252375627435102 0.16532765772718225 0.4380931382382908 ;-0.8686346187457914 0.03404620745214651 0.217589923013819 -0.3797672840767557 -0.4827503979480905 -0.675216902161188 0.2148687759371383 0.5195358191803128 -0.37869505736064524 -0.3185142817878996 0.9613057413363919 -0.40373630985490855 0.502927123498409 -0.41978713633970755 -0.022783837209728486 ;-0.9571431036657477 -0.3589716465219884 0.9175745435992225 -0.22939531690923876 0.4841036442002647 0.666776797845615 -0.3264500073423598 -0.5629004541320637 0.9283782514404504 -0.9447989522911769 0.09717515427633956 -0.13731064173262095 0.9146240535599758 0.9884500950982209 -0.7608596736315807 ;0.061324942593030805 -0.21576134471730568 0.442086636620201 0.20716616618979755 -0.9920310325073622 0.3605478131643589 0.17675326690780507 -0.5921288571520197 0.5082377985663916 0.046846182435368935 0.43005988958650987 0.8714779319305997 -0.10311953575133351 -0.43204057716307137 0.6327243809713031 ;0.04432551434471443 -0.33762392337342145 -0.5394446037398253 0.5746124039019878 0.5876785013427306 -0.5435728728499403 0.008168882506394672 0.3042840231990048 -0.07856399837098861 -0.08867796680648346 0.892732855187992 -0.9842306802696247 0.5783669245310064 0.8609437190556607 0.5517845496306247 ;0.5042012914397224 0.7330354153195661 0.9632971115051526 0.5952541238602008 0.1262262263576457 0.70595067783036 0.22536220195292903 -0.5968621902885854 -0.5300654886187045 -0.8587901221960885 0.867460335598473 0.39473163362196534 -0.35626641036129886 -0.9519243026356023 0.5148024965569765 ;-0.7448552340520503 0.635589780813739 -0.5835539731426646 -0.9259175689595905 -0.9725972607600353 0.5671111219584584 -0.733254800934873 -0.0061106197029534215 -0.3416401556984399 -0.6195859935557176 -0.10700927953735434 0.8947389202115378 0.5833347216447883 0.5034460238176875 -0.6813645211932925 ;-0.8149656240573584 0.35997754921833097 -0.171980999031975 -0.24152562396533256 -0.8168608611962961 0.6865240883931413 -0.008132133330434254 -0.040072167475382794 -0.13419733266746287 -0.17527505735299065 -0.503863659777151 -0.9892402628043254 -0.36667337402692346 -0.11128949233235003 -0.9390741046658626 ;-0.7210648376023121 -0.48269085353816316 -0.6832721164029602 0.6403027842154162 -0.9508923473766995 -0.4950770213219543 -0.6654446055056956 0.6599979746570266 0.9395961720228105 0.5337473871413614 0.29309952299965697 0.028883843359800664 0.9129085752936215 -0.06807106267745312 0.6082281128950133 ;0.47943910417413393 0.40965562690789553 0.5196668015229636 -0.7241620311796261 -0.022156774564112424 0.7950782887706086 0.097416887457782 -0.5320406351561863 0.7067273370236481 -0.8137639608438689 -0.6565641749160556 0.39034580754161424 -0.5875991079204963 0.3465291969692852 0.5155000789917518 ;0.0714086856433418 -0.9795243752059464 0.012535485417483533 -0.7397468628481323 -0.6243865146502235 -0.9195343558468212 0.585361454576935 0.8552334513485811 -0.4982298737331374 0.5151022608943071 -0.08436415764082995 0.8035807144256975 -0.7074577701353032 0.5380877627405513 0.9769000050415722 ;0.8281932834566064 0.6977686569238825 0.4181332386285583 -0.6324027308072206 0.6705691450221534 -0.7043110697866484 -0.9341390590952939 0.016867128297127113 0.4085166349787368 0.4479397876078876 -0.7827480703162576 0.04835738868076816 -0.7991799519865641 0.26710559583154325 0.7403343626575147 ;0.19009676673607168 -0.23669272588565765 -0.06597189642781004 0.5851923904540998 0.506844633551808 0.9531383748084881 -0.12869270644517486 0.07243872195110823 0.9598854599605718 -0.7719511922359827 0.7655474752831082 0.46017737002827197 0.3371847049217619 0.07768963990603345 0.24091591690424874 ;0.7769263589817639 0.07724770652365315 0.4221425170378959 0.321806030600073 0.9628125799802715 0.23076675985437942 -0.574046214372934 -0.7762177088901534 0.07271324078999572 0.27620875404253026 0.2974090595863309 -0.7861923263723997 -0.05534361212610815 -0.5490131628372021 0.6046488812163262 ;0.8454648969228109 -0.4087024870876773 -0.3151005753264257 0.6611421258516326 0.9731995513456131 -0.5278216287764841 0.018044710097498258 0.5670076747323046 -0.15864700937275683 -0.8931441660799053 -0.2227890617475087 -0.5814469807111707 0.6922366847392847 -0.9726060840116986 -0.8801766861124407 ;0.15412820859475734 0.19743556145741994 -0.1517578688197392 0.863455864123758 -0.9140062387769918 0.10718364195151767 0.7727135463116077 -0.5590206492915812 0.7608261186794335 -0.729361396636184 -0.7144445525126198 0.1283705686895948 -0.7987537090284276 0.4250147654574468 0.5609859703787399 ;0.5828656972582618 0.7558128511949156 -0.6895633248352036 -0.44480196383300896 -0.7277018704640623 -0.7183644226351322 -0.6334990639560847 -0.8683490180784166 0.2773788458434694 -0.31591932735693495 -0.8122970645036631 0.9568708959433756 -0.033345147764753724 -0.7544913484744953 -0.7004898482134898 
0.8052567753722619 0.8241408111306009 -0.9849227121560787 -0.7100772657205706 -0.7149672757589871 -0.05842602115916743 -0.1554264935265055 0.2503605838404455 -0.8122742682005004 0.6308117485517626 -0.4538203459626113 0.5405445022709471 0.5402374048749665 0.05104651621144316 ;-0.9664986743045583 -0.32179377576981083 -0.49035497093605057 -0.36873270276017733 0.17815684602387913 0.7847747361074738 -0.6807428592989427 -0.6148122451399192 0.6326494212600129 -0.6703735754547608 -0.2874082424518845 0.3388507001819197 0.20912603367901483 0.9729667443055018 ;-0.10870539846519775 -0.9806834308610737 -0.18756973795757892 -0.3033186243499013 -0.72346359405818 0.6633195609219573 0.6040131456446679 -0.6943946150317144 0.4971704854881386 0.3469269893214579 0.0296987860272867 -0.28340204729030494 0.3128838454054326 0.10626928002547784 ;0.04851385941949066 -1.0761031957090237 -0.7178730442122341 -0.23191692937960737 -0.2093917252492905 -0.20497429096235997 0.8509873170124492 -0.3641853535323412 -0.6497216332414374 -0.3406743852182396 -0.8983978965945686 0.7748200072495541 -0.6976569315613063 -0.3902460048081872 ;-0.10352542311160333 0.03560084859601279 -0.8980547861160362 0.7795482992543533 0.45694178967508675 -0.2250771578094013 0.1842575219964446 -0.26478176063492287 0.029421189717700635 -0.6381832947912766 -0.16577947841678006 0.9640772363871226 -0.27094600611495917 -0.056041389054376285 ;-0.04967679362315217 -0.4645496311013064 0.5416726078245931 -0.12203783547564578 -0.4575531094169182 -0.3474085604530204 0.6902789321587114 0.2147099420552876 0.8057864444350925 -0.15819733568750638 0.9387489457675179 -0.7054231089990247 0.24895516669240603 -0.03747313137498622 ;0.7665210815473313 -0.8085825835019121 0.1464698193579697 0.7362909603322791 -0.27354092045197437 0.31020699400423346 -0.37167970236836656 0.7471506022308061 -0.2253546246473968 -0.21866711381913992 0.4640850403052234 0.8464460277226942 0.9339361483038604 0.4332917264308931 ;-0.8083559186693233 0.4667037697335314 0.4720631210984514 0.7389078508543612 -0.08948420934342352 0.5936532413042168 -0.1651881717271374 0.9905030070470103 -0.26008605539365487 0.30552561044765975 0.3196285984810687 0.5810164874211884 0.9933113821509989 0.8098217075768921 ;-0.6474454730079545 -0.12977997716952142 0.3894249462709932 0.8288246502320697 -0.8512960913589283 0.3827876976811206 0.584018644811031 -0.4291152668109841 0.6926619303565829 -0.12830417253773824 0.8306412011562424 -0.5419878373366356 0.7370631390421158 -0.3037694278698726 ;-0.0823580098784863 0.5883853759398382 0.9664675092311672 0.18796312861504563 0.71063923663695 0.4164603417650884 -0.5140581438982975 -0.220071326463791 0.6274509845575486 0.9660283675989562 0.09790949863678262 -0.253582035663624 0.20224018689659964 0.39545571814355157 ;0.9262185539610845 0.13239903961915464 -0.9350030471663432 0.5946698706739157 0.3016043552664944 -0.5842122642288928 -0.03452088022572934 0.8993569992523784 -0.9161286104891442 0.5240876209610695 -0.2884929311207829 -0.3161457797860449 -0.89887965959278 0.19779458037801856 ;-0.5087931523615986 0.2409225653368879 -0.12241904539546679 0.11141157203515906 -0.33174263557301836 0.1416798762490783 0.20548585399945635 -0.2576851754187291 0.16304821412310536 0.618443991547375 -0.6492769502064584 0.8477467508723097 -0.895699566831264 -0.01597561472357239 ;-0.8033771669103137 -0.40724178773969183 -0.7462982707934889 -0.18297229141929064 0.5074349361259399 -0.9932433211433673 0.6099492599590134 0.41150314263221294 0.654615505296796 -0.4144385947690372 0.7421490595252757 0.722659779275607 -0.8314576661986165 -0.031209618558567468 ;-0.5806412808057706 -0.2896340600351577 -0.7371022128255909 -0.7555293082539184 -0.8391514489146871 -0.2627308901221989 -0.34938324154857786 0.6694079335755897 -0.61590966006192 0.026389685231325274 -0.1305721683329349 0.4175823085483738 0.7261536386083163 -0.299803644893259 ;0.9626785259130817 0.39164672977164905 0.7762910635820994 -0.9064618815449434 0.8741404254946582 -0.47052081395265644 0.18372000281762002 -0.09842219239710319 0.7748997857660477 0.5504715151312038 -0.40531261960581094 0.05578516439432001 0.1258597914778694 0.8487502074915091 ;-0.8626042020866196 -0.06317380409710904 -0.32289139174503156 -0.8610666744703628 -0.7816915013523378 -0.7723973472706207 -0.925123654924854 0.49228784664169356 0.9942278246778946 0.576759239722157 -0.09747819853843653 -0.17278410134606048 -0.6449589724939564 0.7590323873014049 
0.850230316878513 -0.3157054682996756 -0.4084547026140147 0.6332334640997996 0.6451194080045046 0.8501778832628831 0.9590541235989523 -0.5926087812994454 0.580778376626857 -0.10380708834687769 0.5840482810911621 -0.9497277160535749 -0.6989447481053671 ;0.5533325969188678 -0.7082877912788916 -0.19342781976978243 -0.12682808451966573 0.645712702235837 -0.8715427464902192 0.051611356677103336 0.8887483938156309 -0.15962195558501516 0.7031699307983862 0.13111164740179815 0.029001612854229072 -0.2417133957233127 ;0.8854284140153967 0.9856855185715816 0.7678136445083265 0.5716810884975649 -0.791286641531589 0.5901589782549911 0.401625927556093 0.0 0.38577160804365035 0.7286618402715582 -0.9082622570568493 0.4415764260496594 0.6901084481450206 ;-0.06913536445379939 -0.10571967532623534 -0.5858836052555735 0.8458242927481091 0.34873918482638805 -0.14005751284640006 -0.9148353613552276 -0.041224554692019105 -0.33340207710259384 -0.4941551861360772 -0.6464204790421513 0.03412353551679327 -0.7249528143732324 ;0.3730888478266541 0.6074509634945807 0.8015398507153255 0.29472465424172845 0.6986722546321358 -0.6133600323359397 -0.5638383085229979 -0.7139576087713607 -0.5554254434057679 0.9939744273448664 -0.1134387666004996 -0.1860034932219892 -0.257229366125924 ;-0.17261260353431407 0.871830955793371 -0.08706401944903451 0.4610314413947742 0.9987109454624665 -0.02206816839613131 -0.1655282453104887 -0.2886413874920842 0.7057283928394795 0.410646876697847 -0.29502172627651335 -1.449668919209891E-4 0.9672535222338179 ;-0.8252772088181618 0.5527582860716718 -0.8307506571231708 -0.061689695609777995 0.49273721876418736 0.819255680409511 -0.8496679683710664 -0.15781727596571152 -0.3001980393605765 0.012773721418893038 0.9645463610124122 0.13976032516471923 -0.8503131827256439 ;-0.5211348588775416 0.989367558729448 0.6717717641006243 0.8840813500935338 0.5594201345441732 0.31889613216020873 -0.6588265878298547 0.9430938592938312 0.9813439622633437 -0.7925401573665724 0.24551700485126557 0.4891289212585932 0.3467121856733243 ;0.9550460857773458 0.9575610238375404 0.05914765972620694 -0.19697005491578834 -0.032084995033006186 0.1076126052570689 -0.12957653598240046 -0.9791124406495846 -0.9869558173536789 -0.6972310494416877 -0.715082415466394 -0.6270156503168484 0.47758674922809796 ;0.47561006240419246 -0.7065102860796926 -0.7712677931295324 0.4686316673319641 -0.6574214468145761 -0.5529818784194511 -0.8120187380561112 -0.4953362905884253 0.23762198600451082 -0.27352184949583197 0.3762664207865625 0.5041827027931197 0.9216161745954123 ;-0.9885213829472903 0.022558838179522943 0.3620409639684388 -0.11176627819786471 0.006337548297039507 0.32388803841985747 0.13862520911118886 0.3563836784170366 0.6215162952933733 -0.37373933009150423 0.9124232525885476 -0.20677386960898514 -0.1880486853973663 ;0.9239304329492175 0.28218960845588936 -0.2491241358895601 0.38768674327927943 0.19507044425523545 0.6876494511922018 0.741628905675519 0.04674556363857729 -0.7860376034689374 0.827623756673869 0.2883905879232922 -0.4729713465147304 0.975710097497919 ;-0.1430229864578858 -0.22009929552162202 0.9659520541518544 0.2708025096502937 0.8745432694220285 0.49396274461726336 0.7849426868845758 0.02302560565371091 -0.8463917390962108 0.7085782156208484 -0.5593335547649736 -0.7768203697137063 -0.010348322888930396 ;0.26691776521130667 -0.8914554281503629 -0.27139471198705906 -0.08639054871987306 -0.4173037779786362 -0.1939047517630141 0.17546291656901578 -0.1732402789761466 0.8692697053478162 0.7741719485837608 0.681651547083779 -0.4558457082832197 0.30727890123216933 ;-0.36177461307976455 -0.024900462294314085 0.7547222454085181 0.7770657736887057 0.7570122175433625 -0.3846631956704474 -0.4337218556814082 0.0976631469228757 0.22839938624542344 0.27066396450795005 0.9313518195403518 -0.7070334639408709 -0.16493344154889256 
-0.7468933841700743 -0.1757407324413827 0.2722931613772795 -0.650730387168314 -0.6561529816934032 0.7702166832353471 -0.8011133364691687 0.672349432351521 0.510800560772522 0.9383802333880267 -0.18082364934759326 -0.8049225156149669 ;0.37948387848083387 -0.6313607961025947 -0.4490758423433979 0.34304232304047766 -0.37218571074270373 0.5124160066884584 0.12490025274727795 -0.5013527085583465 -0.9541467182552923 -0.8226320346618213 -0.044681728567973096 -0.03392061762670724 ;-0.22635021198679875 0.7764709062055117 0.7220629014320278 0.4009941135643664 -0.10180873436435194 -0.7296904042761726 0.868345489414474 0.44353814572170575 0.5262790802280581 -0.5321496851292048 0.3908752965332322 -0.06805580695234344 ;-0.9931331012817926 -0.2453639445865644 0.23386679007819405 0.14329860594321162 -0.3202341125501367 0.3613790012849791 -0.5785319039409654 0.3413627849228101 0.6120308034851666 -0.7656006641665871 -0.053994809616922615 -0.13411106101016845 ;-0.4226643427497835 0.8002512578787845 0.2095659424887236 0.461245980559299 -0.4525674964802528 -0.7954946936765679 -0.9263242210152085 0.9968795810335852 0.6668035797133626 0.7694768847064063 -0.7281850364482496 0.6046328048261338 ;-0.878783340077444 -0.30939397094249044 -0.5308368534855659 -0.3679985168713271 -0.9028725178675021 -0.11855169263188275 0.5704030885106474 0.8473814947564215 0.27870907661922106 -0.42230189841661586 -0.7426151612722163 -0.5523266307231951 ;-0.46978750673274994 -0.10169291888379507 0.3708497562616823 -0.47685148044919284 0.9890345529985356 -0.392485627395952 0.13005090865963845 -0.11259609089099777 -0.9702555042350273 -0.3887379629347317 -0.6205263357715486 -0.08469775106289876 ;0.6296601932065379 0.2519214845156418 0.9459827887576389 -0.06393745463616408 -0.4844018291754582 -0.34262651226993013 0.8554920489803597 -0.8508791652332355 0.755433835791495 -0.03748505815979171 0.50837169859729 -0.9258684726873303 ;-0.9951986699204534 -0.24302964355671924 -0.7264418141945473 0.8107451562751191 -0.09508603349719537 0.5743334464227952 -0.043207329950840194 -0.4438840836629568 -0.5797315679866422 -0.5386079679557144 0.06786446858723959 -0.8935463849462861 ;-0.042988715336202944 0.7478453556594769 0.5048524264038362 0.6940972447625618 0.878515695797246 -0.8469694975897382 -0.21148356534713278 -0.4620998764366757 0.944568277443534 -0.7618577809504424 0.4682223488195211 -0.9697219856314289 ;-0.5567091941322939 0.7234116926158422 -0.7483379011255087 -0.6746706223414095 -0.3033543704368516 0.43555208614759466 0.11274385672706005 0.06575004255603889 0.827143616759168 -0.7788831805338373 -0.14788645254382007 -0.3033859652064848 ;0.9401582295338066 -0.7894024663894654 -0.8343526130846637 -0.4983916045984119 0.841659858262067 -0.44870099882902154 0.024490864988100956 0.8925373680492898 -0.22201160385088245 -0.47769107710001585 -0.05099222997698789 -0.27721636521780213 ;-0.42718080937202385 -0.20584325624692731 -0.38219702034973607 -0.08715884775945416 0.5736900998338288 -0.859899628233061 0.24547779362177058 0.8428813061731191 -0.8623321799656684 0.5346632709878819 0.2746556853375544 -0.5000752107940687 ;-0.12496624305006443 -0.19025732419782826 -0.08486190626303913 0.45655591245212856 -0.3978447514760921 -0.7769864062393295 0.42585371391726534 0.8084286745380731 0.49517167617531466 -0.10519504226562049 -0.207931856640164 -0.8501512717664259 
0.5835850622255394 1.77448382945639E-4 0.5806676496126654 -0.3266291952443991 -0.41309407370206713 0.3087838875964755 -0.6647687254938413 -0.00434159208188653 -0.7048218140172724 0.9361467206059387 -0.21939816575952048 ;0.3997425322211593 0.8556092367997987 0.16493469157411972 -0.927280950530361 -0.17154498454305775 0.501848927276531 0.8907088438843505 0.6837511296856911 0.22501827485941447 -0.8342697222935874 -0.808011797440418 ;0.16105024520776798 0.39433093731103724 -0.5309310537713856 0.4354343536715498 0.7918613737059466 -0.8780093863242415 0.016982421974015182 -0.9871364364113562 -0.051916707079145516 0.9041856708138785 -0.8126167001863264 ;0.37770813237802725 0.21766271011771746 -0.4100880733254151 0.6201401835486262 -0.09093962385077939 -0.01754784455742222 0.9887634118773393 0.6035944165825989 0.40475019275307217 0.5361564018948608 0.282126737835021 ;-0.2882339870582395 0.2016479422291596 -0.5080656149925649 0.8559481986889972 -0.20321307415067982 -0.881042127303209 -0.02148403801282398 0.20304217887522777 0.3598795637584276 0.6158030843140615 0.9330921555070553 ;-0.35388706824133104 -0.03423659572111983 0.054336701452985275 0.6740894408222982 -0.14969583185493843 -0.775426088335332 0.9599087467378044 1.0052079638273015 -0.6976032275852613 0.20705741985411386 -0.06277571785328338 ;-0.7841001290868627 -2.3342081745461387E-4 -0.8118658867391243 0.8020031220668565 -0.19213550227841467 -0.005934330620687631 -0.3466571245482568 -0.4730217679407123 -0.8029490962108475 -0.4023400196862369 0.27200475846679484 ;0.45442960164607893 0.9753680853100039 -0.13916000340021134 0.24072683846391793 0.12044105717747802 -0.7210164015612329 -0.6070998205983786 -0.6791838450571521 -0.25949828795076735 0.6594189296192582 -0.879420072338887 ;-0.41458037337386006 -0.755378455926737 -0.7249416514336647 0.7496488667928138 0.5069772002350429 -0.06673359902182681 0.5980790509521983 -0.36396187762341514 0.7916937082141747 -0.07440360996646836 -0.2592938506424902 ;-0.8917691785025813 0.49888876404513394 -0.21701044981455586 0.3476930040139512 0.0036782856403869088 -0.8101041991646672 -0.7018826066634831 -0.5430547613752945 0.18511687589317669 0.21775424611010302 0.11545019208636695 ;0.13828560304768694 -0.3730047976485641 0.22848749085924208 0.6550625086346782 0.8141260303629361 -0.8476841651367826 -0.08977891797998391 0.7456660700502589 -0.8732684736939939 0.5822255157253666 0.0 ;0.27772917429432 0.43786357417123706 1.0064438567486476 -0.6153974263018496 0.1830617219635425 0.2842314536990363 -0.5300506978722361 0.1336086313894634 0.0049101703762081325 -0.15274676602653647 -0.27289052875481795 ;0.8420166314183741 0.10601192989013786 -0.20237176494610498 -0.7385580984325439 -0.7549986567354858 -0.7387326928758506 0.8281974646383399 -0.5662160782072374 -0.4406936771076895 -0.8600266010848705 0.003844889621870573 
-3.105762302583444 -3.4686915641151193 3.6172419313364523 -1.1099914542867428 -1.2617595634653371 1.9103627383636916 3.6176208304518904 -3.9231101780203597 1.8714225585641864 -0.8547165927368975 ;0.16633664908250106 -1.0876935477808625 0.356641027888946 0.0419025773451557 -0.5261661731523884 -0.18079995381127884 0.6304309490602834 -0.22974349754805523 0.13849076580921718 -0.49988098951511023 ;0.9833726405119242 2.038399757311531 -2.074600780901561 0.23810604754238437 1.3909737680497818 -0.36315737885503646 -1.3032735062264826 1.731920706418146 0.018827523712909463 -0.26522848629975143 ;1.809222769764406 2.1068747942685615 -1.984986813210822 -0.11003969914189128 1.0076549850986356 -1.1807584520884027 -2.0527304559918327 2.6242224385028354 -0.48230098280918493 -0.8655159374715269 ;2.132500542447201 1.9500258751356598 -1.8809761043942042 1.182872729384739 1.474414752192993 -1.6802796706197616 -2.124746764208996 2.182052802025805 -0.40186954309254846 0.5069927772498367 ;2.309819787218644 3.203467686466625 -2.8309837319732454 -0.017438748051597393 1.1191929540107632 -1.41514488832872 -1.9528957357935486 2.1722818114417186 -1.6094097961463063 -0.4870556204712189 ;-2.224597065632486 -2.926320264055431 2.9576177335477354 -1.563159429204915 -0.9619906730143245 1.8985902236771164 3.073631489584045 -2.354344270967723 1.4940889035320992 1.0398858983815951E-4 ;2.514088445915815 1.2679955838927026 -3.3404048405455504 0.9284421151432491 0.327810599492325 -1.6945014664997582 -1.6434722717953931 2.9489738765618716 -1.8906877070456387 0.48153149685050123 ;1.4319554409271265 1.6327181252072878 -1.356695679230781 0.017936457532339512 1.2307097028353393 -0.4560849634083684 -1.1760621031789462 2.2317338808624125 0.30406309476684357 0.3215071773588082 ;2.0064529579662116 2.13629333139722 -3.522617875632959 -0.2413098415500567 0.25994440585100936 -1.850764123326616 -3.4400027173253718 2.0495367378689444 -0.5776064649958041 -0.1673926531422042 ;-0.3214899299618596 0.6019482886894895 -0.04576958375001904 1.0402814770162874 0.41095487284717225 0.47099893260058256 0.42721916591670883 0.953859829913339 0.6509126215866268 0.31737716044675474 ;0.47527415793203676 0.6548752795406032 -0.6233243396564085 0.21747741307571067 0.7352990666890562 -0.3404803936198999 -0.6664358374143753 0.5667042178748758 -0.330978873819908 -0.9076689001282121 
0.0 ;-0.0021180677120880005 ;0.0 ;-0.0021935017378231303 ;7.200606123690652 ;-0.001120952092697215 ;0.0 ;0.0 ;-0.0012905341820459346 ;-67.30917293383719 ;-0.7218793270368227 
