6 7 8 8 8 8 1 
-0.07144320774302858 0.10504229226981869 0.007291418282507905 0.08964467854456672 -0.1211031577761775 -0.04822863606657456 3.687002941549498E-4 -0.010665579930249481 ;2.847980194744949E-4 -0.5189019581780255 0.4055050706757762 -0.07547065238663292 0.2196429733908962 -0.13250539533711242 0.07241624003094736 -0.26113737438816526 ;0.15844318497916487 -0.3708606663522683 -0.001104391428884659 0.3940191473710409 -0.31176697753930516 -0.19740453804083796 0.0013845138471221634 -0.026850816113434546 ;0.13334533218962555 -0.09962361643730958 -0.6732925625656819 0.02960542193384243 -0.16906474127244603 -0.3528850791656007 -1.9976761346083346E-4 0.33228374358037027 ;-0.05726527705443561 -8.874147608403146E-4 0.2572082942893343 -0.21895732093229628 0.019543619657634067 -0.22881181074583193 0.02896254617466651 -0.13160049218899064 ;-1.2152900250619298 -0.6168448140448789 -0.41659144914732144 0.11745642785081298 -0.022860764594103217 0.6230811879458888 -0.06720686564100779 0.20704948237622814 ;-1.5149476600873313 -1.4473226741322773 -0.12044789201254577 -1.920400387197395 -2.234823561332093 1.7459822621482655 3.133265784629604E-4 0.038348665408017485 ;0.30106373510610696 0.1990150830895865 -0.1789985949549162 -0.12858431675738835 0.044745638892739636 -0.1494945438543318 -0.5929106187323225 0.3730261213695456 
0.0 -1.0763117842346395 -2.1168646442069443 -0.004779337618708803 -0.7751746588327525 -0.011721008947909868 -0.010927066002524171 0.011925607599582874 ;0.0 -1.2846426925450727 -1.817692445318876 -0.004615677471174901 -0.8935597874941114 -0.011320806816418522 -0.010539254203468884 0.0 ;0.0 -2.8506212825951014 1.2847316886425484 0.0 -1.4356434962338966 0.0 -0.014778328897130336 0.0 ;0.0 -3.7180929290420166 -2.0843978044972 0.0 -2.1808594546432682 -0.020450296922271665 -0.019037179847922157 0.020881309132278838 ;0.0 -3.3366050590738854 -2.0621686631800724 -0.00932923902449489 -2.0458919808275873 -0.022853004487800054 -0.021256738356503616 0.02335219801659626 ;0.0 1.2565638169646058 2.375648405133426 0.004005678502723287 0.9669078059087327 0.0 0.009244736683037344 0.0 ;0.0 -5.843692029829564 1.4296425323797401 0.0 -2.985926095652351 -0.019094632428988952 0.0 0.019554887853970308 ;0.0 3.8650330497049312 -1.4533332738239897 0.0 1.9637068057537213 0.0 0.0 -0.015332421863634562 ;0.9692317380866184 -0.2318714772703303 0.3658604456610508 -0.9237915629898841 -0.2632611349432572 -0.7927345877786265 -0.8043958261235702 0.7899564921027626 
0.0 0.6687858871788593 4.81330454882108 -0.054119446396153834 0.0 -0.7865789044865433 0.03436101515366303 -0.04590382179637181 ;-0.0049454365884738635 1.363703018238031 -4.332807226116303 0.05078148942876803 0.0 6.513248129057129 0.0 0.04094951340763132 ;0.0 4.713871246482351 -4.6630982575738305 0.0 0.0 6.203726006739284 0.0 1.1799331251041485E-4 ;-0.006173704189541809 -0.6279922903590619 -4.601344402899058 0.05151652801185162 0.0 0.7626422843700795 -0.032750098062050835 0.04370577740809817 ;0.0 0.9924447001531501 -3.493116531771056 0.03201092164154286 0.0 3.923783066664589 0.0 0.025946519948608818 ;0.0 -0.5288196541757192 -3.9734617813096316 0.044444580730376645 0.0 0.684669254120164 -0.02820314720879147 0.037667721343315835 ;-0.005389224246906249 -0.5333832871848496 -4.03382584003551 0.044996698624366095 0.00822323094516232 0.6972867681750233 -0.028585779151943273 0.03813648533412682 ;0.0 0.5361186854003515 3.9453062095551426 -0.044376268898420015 0.0 -0.6771722939144644 0.02815964236711545 -0.03761109100869946 ;-0.9001645018237365 -0.5446668849726417 -0.18687553842729798 0.5558035664510903 0.8381167497429978 -0.0012766810971909237 -0.6376087246868827 0.5865924094270893 
0.5310640127854566 2.9425721205488387 1.7447566077988361 0.2258305847521922 -1.7366649984126266 0.10081258944161751 2.4474118266442577 2.85273362225128 ;0.07443399698427229 1.8621458195103298 0.2728303280573474 1.2338773798778173 -0.2541798556645587 0.014304556069492241 2.5428431389485584 -1.7815540852094334 ;-0.29148026636361657 -4.794240720553896 -1.0543918329189583 -3.0570714250802133 1.0103055931497047 0.0 -4.734572141288228 4.926180087444281 ;-0.3211422807482449 -1.7196305472159827 -1.052283028206079 -0.09029397221138127 1.0480285484934386 0.0 -1.4305151491679458 -1.7668937887820948 ;-0.49441576372217 -2.740323160156164 -1.6243418767530255 -0.21052457259167176 1.616777075907947 -0.09384885279331993 -2.278392974261457 -2.6547203337159435 ;-0.012554945487047046 5.960657724549929 -0.0011052267352220499 4.161041301562511 0.03688127414384965 0.0 5.305081257795868 -6.358110923109277 ;0.3716091050945232 2.032163897021531 1.2194824250411322 0.13468117314122044 -1.214184636946184 0.07058960307423902 1.6869294334342029 2.013562394292654 ;-0.3403365859270553 -1.8374965190931845 -1.1159015156609629 -0.1070938748444706 1.1112701009075008 0.0 -1.5284603314524376 -1.862225094883486 ;0.6936796722841181 -0.09092017313424039 0.6102890238922181 -0.11001703273273522 -0.5965246554792043 0.8527125276178249 0.4640183838656158 0.2261782311103866 
0.7650856529346921 ;5.941232884190427 ;0.12923109251350173 ;0.8122413814989573 ;-0.10275563994679184 ;1.025957935546163 ;1.346538582663263 ;-12.347014831642234 ;-0.38374081176153485 
