5 7 16 16 16 1 
0.08520966425547374 -0.009952653331628255 -0.11924310774174643 0.0024755460948962327 0.0 0.0016275311395243883 0.0 -0.019520137422082286 -0.006003192280792771 0.1273115321832251 0.021047932701045838 -0.011899458718847141 -9.745530625566437E-4 -0.018591335857115088 -0.005506650959636169 0.003687449837660345 ;0.1881974386978828 -0.00929389365480813 -0.11815827840508931 0.0 0.0 0.0014319262598809245 0.0 -0.02140758795529234 -0.0051639921329846745 0.05388887331651365 -0.10267891876014673 -0.011503215193976372 -8.591522993299938E-4 -0.020050603502377407 -0.004612939061859736 0.0 ;0.0812952866117901 -0.005724486743123896 -0.07762778941739122 0.0 0.0 0.001078898515020426 0.0 -0.008277468064643023 -0.0037910305100329863 0.04956773970247759 -0.024071764228119158 -0.006465431236606596 -6.499712354348844E-4 -0.007912585123383647 -0.0035198939986807827 0.0 ;-0.03793792916563302 1.981636679183518E-4 0.08092856369463365 0.0 0.0 0.0 0.0 5.753400649211325E-4 0.0 -0.005310685310428945 0.03277977459492468 2.4612402718895597E-4 0.0 5.423554454577301E-4 0.0 0.0 ;0.059170993171983016 -0.006723639973971619 -0.0713459269030362 0.0 0.0 0.0 0.0 -0.007192803214539474 -0.003592123193110936 0.05883150221015108 0.08181214627830605 -0.007989367725767294 0.0 -0.006955567017855293 -0.0032988103492346548 0.0022023970277622986 ;-0.4000391570362417 -0.003004655038156359 -0.6902544504775774 0.0 0.0 0.0 0.0 0.033205024678361686 0.0 -0.20853957054862982 -0.3244609802540266 0.005676146325696932 0.0 0.03037262816765061 0.0 0.0 ;-1.4180667920242123 0.06492032535075044 -2.0145912289069674 -0.015332887176275707 0.009422239569224573 -0.009997884543566994 0.002681387808980713 0.15030563899270585 0.0 -1.0303024923405968 -1.700782579267479 0.0800169615419777 0.0 0.14141224937971833 0.0 0.0 ;0.0952615428779573 0.4040766730128178 0.2268718274192849 -0.6728968120309107 0.7586566188125645 -0.7483728986609217 0.9730148102712837 0.2657424537669506 0.4944777792485331 -0.03284618268367834 0.08004277149852301 0.3674822169591252 0.8350278375407436 0.27475576565510607 0.5127404642181133 -0.5913699461428861 
0.0 0.0 0.0 0.0 0.0 0.0 2.7285419612004738 -0.05305548889993903 0.0 0.0 0.0 -2.0845850847082352 0.0 0.0 0.0 0.0 ;0.002100710576392899 0.0 0.0 -0.012711117241636842 0.0 0.0 -0.20535991377612717 0.030315608467917966 0.0 0.0 0.0 0.6857502888460457 0.0 0.0 -4.753994299159024E-5 0.013823405381610893 ;0.0 0.0 0.0 0.0 0.0 0.0 3.8296467118021575 -0.06272993258213987 0.0 0.0 0.0 -3.0284591148593814 0.0 0.0 0.0 0.0 ;-0.0033757022324704604 4.771128443700585E-4 0.0 0.020425337910119176 7.493013134955011E-5 0.0 0.21250067612139192 -0.048056392792033255 0.0 0.01400888918050744 -9.477790981459041E-5 -1.0195820538676976 0.0 0.0 0.0 -0.0222835212179504 ;0.0037962133762544825 0.0 0.0 -0.022969318186495447 0.0 0.0 -0.22764820307261702 0.05397425078391375 0.0 -0.015753778995614334 1.065841595802693E-4 1.1382324758446145 0.0 0.0 -8.590650450016806E-5 0.025065560920953425 ;-0.003749613595859791 5.299590290437328E-4 0.0 0.022687772943308683 0.0 0.0 0.22663952198637383 -0.0533133028512387 0.0 0.01556054827990909 -1.0527565329941528E-4 -1.1221242854110678 0.0 0.0 8.485185233756312E-5 -0.024757296661466494 ;0.0 -6.864968154015228E-4 0.0 -0.029388089530698366 0.0 0.0 -0.2777796750145095 0.0689749549637233 0.0 -0.020156301150602834 0.0 1.4456500474338299 0.0 0.0 -1.0991512644973479E-4 0.03207792659442649 ;0.0016416947583133394 -2.320245560583414E-4 0.0 -0.00995723206222932 0.0 0.0 -0.3425924501537548 0.024687933423718212 0.0 -0.006822608149742218 0.0 0.6078534311238499 0.0 0.0 0.0 0.010724676785883206 ;0.0 -3.4985066841861404E-4 0.0 -0.014976660249715848 0.0 0.0 -0.13958040132492253 0.03510414032878594 0.0 -0.010271964960400067 6.949728862470376E-5 0.7258109702625306 0.0 0.0 0.0 0.016348678353466164 ;0.0 0.0 0.0 0.013283158872840175 0.0 0.0 1.8588001736730275 -0.040467010301943426 0.0 0.00907620256639937 0.0 -1.618074518229433 0.0 0.0 0.0 0.0 ;0.0 0.0 0.0 0.0 0.0 0.0 2.8746931621111464 -0.05054578732769342 0.0 0.0 0.0 -2.6004889488631413 0.0 0.0 0.0 0.0 ;0.001963532090395645 -2.775229481201553E-4 0.0 -0.01188718249914138 -4.35849683928867E-5 0.0 -0.2293219437570523 0.028535390340833997 0.0 0.0 5.5129916204518564E-5 0.6511525564980388 0.0 0.0 0.0 0.012907230081563964 ;0.0 -5.890773645844771E-4 0.0 -0.02521777887488472 -9.251392245861523E-5 0.0 -0.23552565113621066 0.059163576887953026 0.0 -0.017295986222736186 0.0 1.23611702231678 0.0 0.0 0.0 0.027527558902464645 ;0.0016658645416826935 0.0 0.0 -0.010101230219352735 0.0 0.0 -0.3274423498050611 0.024938661252629776 0.0 -0.006922016261436087 4.6770432053992465E-5 0.6078970312691103 0.0 0.0 0.0 0.010891080599085948 ;0.0 0.0 0.0 -0.01551750173512205 0.0 0.0 -0.14440033896963345 0.036375634423371404 0.0 -0.010642988441570187 7.200821038642651E-5 0.7536111157904185 0.0 0.0 0.0 0.01693930346488591 ;0.0 0.0 0.0 0.017825816587617744 6.540003779349331E-5 0.0 0.16455092678403982 -0.04181303222300765 0.0 0.012226431564070174 0.0 -0.8751715370433374 0.0 0.0 0.0 -0.019459604104010784 ;-0.4091784779691612 0.5497956876023891 0.7657377454858509 0.2745685307794328 0.6785955610657635 -0.958957545856632 -0.1062040717268311 -0.21325054013327494 -0.9198837132828617 0.30307691388140223 -0.662407372537198 -0.15804475594162248 0.9518287861187482 -0.92438791281068 0.6772708814396791 -0.26882507806602884 
0.0 0.0 0.7476738374961567 0.16919708735907962 -4.294663812052178E-5 0.0 8.904722808647804E-4 0.14742351566273532 0.43592977333079946 0.0 0.0 0.0 0.0 -0.23840674124308858 7.630249401953158E-4 -0.2351567196722527 ;0.0 7.377936435319182E-5 -1.0058080675001961 -0.22762846884788235 0.003988335330244344 0.0 0.0 -0.19835464758111437 -0.5863920113084568 0.0 0.0 0.0 -3.71437748080506E-4 0.32073375110546676 -0.0010266178022004882 0.31636498315318046 ;0.0 1.0278156539880983E-4 -1.4011689184301503 -0.3171607981098284 0.008462242309857286 0.0 0.0 -0.27633199258380836 -0.8168406465185148 0.0 0.0 0.0031925148871750175 0.0 0.4468053241055784 0.0 0.44072005393042796 ;0.0 3.570452647308903E-5 -0.4906321539970309 -0.11131159331636328 0.0 0.0 0.0 -0.09655523699707876 -0.281588312824042 0.0 0.0 0.0011089907789854714 0.0 0.1557316719649864 0.0 0.1535506095178139 ;0.0 9.108376057064308E-5 -1.2416991885407307 -0.28106459589737864 0.007580584309895981 0.0 -0.00147909578094292 -0.24488173453216008 -0.7238779824423203 0.0 0.0 0.002829167446722647 0.0 0.3959536936974015 0.0 0.3905609651849203 ;0.0 -1.2871659820243658E-4 1.754728058358935 0.39719047727541534 -0.010883118846470608 0.0 0.002090209894937545 0.3460592755313616 1.022955321660892 0.0 0.0 0.0 6.480159326278606E-4 -0.5595484088459801 0.0 -0.5519276329506666 ;0.0 7.023845300864182E-5 -4.757801489280684 -2.3207158985338903 0.11004043736695085 0.0 0.0 -1.3314511475272717 5.371318863271882 0.0 0.0 0.002177782183113727 -3.5355493286404026E-4 0.5340382476079921 0.0 0.4980985832084448 ;0.0 0.0 0.4544577146847891 0.13259103642929687 -0.0044251344035427295 0.0 4.5176336700558217E-4 0.10012915393638211 0.11593009241293332 0.0 0.0 -8.639997162782927E-4 1.4005821301215092E-4 -0.12754456647823117 3.870872173755819E-4 -0.1250680739109518 ;0.0 0.0 1.6832296373275852 0.38100649261834285 -0.010628908846508526 0.0 0.002005041879073068 0.3319586907336931 0.9812738258097401 0.0 0.0 -0.0038351804732600346 0.0 -0.5367489627822316 0.0017180746661820774 -0.529438704200948 ;0.0 4.002543354158983E-5 -0.5482143335883031 -0.12431380725356753 -1.2241186348696222E-4 0.0 0.0 -0.10803190467748043 -0.3163888327903756 0.0 0.0 0.0 0.0 0.17431725740932855 -5.56936904371946E-4 0.17190608065659707 ;0.0 0.0 1.2120560995017655 0.274355529740196 -0.0073995217321915704 0.0 0.0014437834059778058 0.23903505422459237 0.7065801569547864 0.0 0.0 0.0 0.0 -0.386501082256937 0.0012371450642211785 -0.3812370394016838 ;0.0 0.0 3.7296322284826204 1.9127361631150541 -0.08603029347116246 0.0 0.0 1.0588162251172155 -3.8667369151487856 0.0 0.0 -0.0013730971835034108 0.0 -0.39961289434424313 0.0 -0.36907368117442746 ;0.0 1.2775973654904576E-4 -1.7416836490549272 -0.3942378173846091 0.011081468715993482 0.0 0.0 -0.3434867180276555 -1.015350811177346 0.0 0.0 0.0 0.0 0.5553888022130848 -0.0017777387514965133 0.5478246781274705 ;0.0 -1.2407647040325092E-4 1.6914715509825884 0.3828720863225624 -0.010680953170716115 0.0 0.0020148595424957644 0.3335841224664721 0.9860786212844653 0.0 0.0 0.0 6.246554897223307E-4 -0.5393771476167546 0.0017264871981014036 -0.5320310944423434 ;0.0 0.0 -1.2392628008439681 -0.280513474071742 0.007565659129233042 0.0 0.0 -0.24440090818292548 -0.7224609857835408 0.0 0.0 0.002823616147065876 -4.5765592681565E-4 0.3951770025581817 -0.0012649165877246327 0.38979482738609716 ;0.0 0.0 0.47220045053264503 0.10587829328126658 0.0 0.0 0.0 0.0925411942694589 0.27973188557906475 0.0 0.0 0.0 0.0 -0.15088352522829906 0.0 -0.1487850669919762 ;-0.9711879542047437 -0.800047231392127 0.2718983701771409 0.10926011981203576 -0.0035190391251582742 0.9331873906546604 0.608790840913034 0.10229068202200886 -0.05455013347424864 0.9416849694520399 -0.98240832143376 -0.5640773351741795 0.6898023892555372 -0.26115611412696316 0.6197008714377084 -0.266517550463405 
-2.6701770168335037 ;-2.1996161123931808 ;5.59643585974689 ;1.2612507379464475 ;-0.04752324174197594 ;2.5656985469565887 ;1.673440240456873 ;0.5987392422807654 ;-7.4480511787138 ;2.589061727590637 ;-2.7010262119513384 ;-1.5525999960643062 ;1.8967864089314173 ;-0.634778327975972 ;1.7026443188898739 ;-0.6485152488316852 ;-0.695560683961032 
