5 7 8 8 8 1 
0.0 0.01676051836526318 0.18944721916145588 -0.06540853308956948 -0.06534676798230224 0.0 0.0 0.061653605877484446 ;0.0 0.02285364686480627 0.0389698608956939 -0.10239427760972174 -0.1018917562062393 0.0 0.0 0.08696419692577305 ;0.0 0.025895125915732377 0.10341873590602266 -0.10953198632975679 -0.10905776170150304 -0.006015515926074974 0.0 0.09616568274918795 ;0.0 0.017566810055371116 0.17110460318839998 -0.045163410785544277 -0.047001032182698056 0.0 0.0 0.04631204705607561 ;0.0 0.036186752222292624 -0.2511367451010752 -0.17066755028117006 -0.16947784314176523 0.0 0.0 0.137094438271357 ;0.0 0.049590847720631895 -1.0195301058844704 -0.29696332653445373 -0.2941339543346672 0.0 0.0 0.22133100098521422 ;0.0 0.057105994463398216 -1.3673831808848282 -0.35884218128072626 -0.3553615740561048 -0.013127318466193718 0.0 0.2666502610037312 ;-0.933393189777485 0.6370016948979684 -0.21361591666776114 -0.3997573378009933 -0.40107780036012763 -0.8542007743979931 -0.9278853930738029 0.44104964063110863 
0.19155532445367415 -0.006595561292229701 -0.05269138133419069 0.0 0.002071576804385525 0.00831868128097483 0.009186950789874226 0.0 ;-0.6978728093024075 0.005480784129475952 0.05236510154929851 -0.0015108061161775634 -0.0017209568703606692 -0.006919617170058506 -0.007643522297217133 -0.0010664254916283782 ;8.375059664424537 0.0 -0.2646726593032474 0.0 0.0 0.0 0.0 0.0 ;3.264632826100789 -0.008431109029933019 -0.11546788465962127 0.002322545256995667 0.0 0.010671543200138682 0.011794585923727657 0.0 ;3.2404158763773254 0.0 -0.1147968655114611 0.0 0.0 0.010623697470265116 0.011741678752019345 0.0 ;0.23578342848891792 -0.0061350660856752046 -0.0499285436074118 0.0 0.0 0.007738652369209721 0.008546562468235017 0.001194120915512714 ;0.1904249886036452 -0.006556641990972614 -0.05238045832810571 0.0 0.002059352777019963 0.008269594137592966 0.009132740133709693 0.001276221756134156 ;-2.531424369723555 0.0 0.09587364649117855 -0.0020314908874636225 -0.0023139164322970892 -0.009329543324492751 -0.010310427055534623 0.0 ;0.26993435623072703 -0.5813570893817599 -0.20516999517827328 0.781049140848249 0.7615210597659401 0.5441156159640852 0.5274999744541462 0.8325057280171613 
0.07462435875298684 3.5456603716201984 -0.013913370258356083 0.0 -3.296183903078879 -0.006291215939622734 3.231426283992947 -0.007146512673195868 ;-0.014903800094821729 -0.15488377878750287 0.0025515837525735188 0.0033818954054491844 0.025057207392912183 0.0 -0.015519383038389255 0.0 ;-0.007271347175718222 -0.15936046483101343 0.0 0.0 0.10790181583392343 0.0 -0.102759079002272 6.488205434588603E-4 ;0.020021225237794784 0.2077509887013314 -0.0034275508533238327 -0.004542816807400957 -0.03332078255400946 0.0 0.020535918371622486 -0.0017311934264690146 ;0.019517921853943014 0.20247274583204095 0.0 -0.004428586494636891 -0.03239405583974149 -0.0014842154495075654 0.019911725559181095 -0.001687666002089423 ;0.01395421610671271 0.14585354731119105 0.0 -0.003167291187304314 -0.024370965447933095 0.0 0.015437243713220599 0.0 ;0.013528889453620635 0.14155153491071337 0.0 -0.0030709177273047774 -0.02382287795916051 0.0 0.015125062496749426 0.0 ;0.02133982791864561 0.22129755415650207 0.0 -0.004841815923622708 -0.03534319685521987 -0.0016227140043653786 0.02170146729658589 -0.0018451500855037684 ;-0.5898048736501191 -0.30619451951181675 0.8310801417856724 0.7824311020298838 0.19903666164572975 0.9457506890423788 -0.188805706243393 0.9276329525206395 
-1.0488129922381164 ;-3.3131719013199876 ;1.406577365468651 ;1.303597773464781 ;3.028122288006634 ;1.589871540726598 ;-2.9640492853387377 ;1.5598979345955817 ;-0.508544015487264 
